\data\
ngram 1=5448
ngram 2=18430
ngram 3=3339
ngram 4=2147
ngram 5=1395

\1-grams:
-4.3141274	<unk>	0
0	<s>	-0.4028263
-2.0656824	</s>	0
-2.8775656	日本	-0.309725
-1.4536608	の	-0.21546541
-3.990047	水墨	-0.2205844
-3.6189215	画	-0.09404617
-1.6138287	を	-0.23562786
-4.1869555	一変	-0.09404617
-2.1920562	さ	-1.0911508
-3.3944173	せ	-0.14579779
-2.4564235	た	-0.25500593
-2.076788	。	-1.19465
-4.1869555	諱	-0.09404617
-1.8085037	は	-0.24261338
-2.648189	「	-0.13947168
-3.990047	等楊	-0.09404617
-1.7735589	（	-0.14991352
-4.1869555	とうよう	-0.09404617
-1.6470253	）	-0.7509033
-2.150141	」	-0.711656
-1.7570871	、	-0.2177999
-3.990047	もしくは	-0.09404613
-3.8795545	拙宗	-0.09404617
-4.1869555	せっしゅう	-0.09404617
-1.7806108	と	-0.55699587
-3.729973	号	-0.09404613
-1.9242253	し	-1.0224724
-3.990047	備中	-0.2205844
-2.8601441	国	-0.3052517
-1.5740619	に	-0.32376182
-3.3944173	生まれ	-0.18664496
-3.024177	京都	-0.28501642
-2.0853076	・	-0.10615616
-3.990047	相国	-0.2205844
-2.1149776	寺	-0.5857607
-3.8795545	入	-0.19709072
-2.5377235	っ	-1.1436377
-2.608163	て	-0.1845938
-2.4431477	から	-0.17757718
-3.990047	周防	-0.2205844
-3.990047	移	-0.14033619
-2.2069776	る	-0.29619953
-2.977007	その	-0.15032008
-3.0498338	後	-0.26032826
-3.990047	遣明	-0.2205844
-3.6189215	使	-0.1741864
-3.990047	随行	-0.09404617
-3.1373835	中国	-0.16933526
-3.729973	明	-0.09404617
-3.990047	渡	-0.1527229
-3.4571767	学	-0.16302814
-2.8601441	ん	-0.34503976
-2.9999518	だ	-0.17232299
-3.4571767	作品	-0.1853295
-3.5305624	数	-0.1781281
-3.2909198	多	-0.373182
-2.5894535	く	-0.21442445
-3.6189215	風	-0.19709072
-3.3395927	山水	-0.319975
-3.729973	だけ	-0.1527229
-1.8465085	で	-0.5581389
-2.3879695	な	-0.27314442
-3.5305624	人物	-0.14825512
-2.5894535	や	-0.13699937
-3.8795545	花鳥	-0.1741864
-2.3879695	も	-0.18744902
-3.3395927	よ	-0.15459421
-4.1869555	大胆	-0.09404617
-4.1869555	構図	-0.09404617
-4.1869555	力強	-0.09404617
-2.3339045	い	-0.30456996
-4.1869555	筆線	-0.09404617
-4.1869555	非常	-0.09404617
-4.1869555	個性	-0.09404617
-2.680832	的	-0.52117044
-4.1869555	画風	-0.09404617
-4.1869555	作り出	-0.09404617
-3.8795545	現存	-0.09404617
-2.1671169	する	-0.41492665
-3.8795545	うち	-0.12239434
-3.2471561	6	-0.24696822
-3.5305624	点	-0.1741864
-1.8146114	が	-0.24059743
-3.6189215	国宝	-0.1741864
-3.8795545	指定	-0.09404617
-3.2909198	れ	-0.47940218
-3.077102	お	-0.2220946
-2.8433948	り	-0.26638383
-4.1869555	画家	-0.09404617
-3.990047	なか	-0.1741864
-4.1869555	別格	-0.09404617
-3.990047	評価	-0.09404617
-4.1869555	受け	-0.09404617
-3.990047	いえ	-0.2205844
-3.2074015	この	-0.14164601
-3.2909198	ため	-0.3163375
-3.2909198	図	-0.29383564
-4.1869555	屏風	-0.09404617
-2.4988742	など	-0.48064932
-3.8795545	伝	-0.09404617
-3.1709828	雪舟	-0.1454103
-4.1869555	筆	-0.09404617
-4.1869555	大変	-0.09404617
-3.990047	真筆	-0.09404617
-3.024177	あ	-0.61040044
-2.8117173	か	-0.20891549
-4.1869555	専門	-0.09404617
-3.1373835	家	-0.2775093
-3.5305624	間	-0.1527229
-3.990047	意見	-0.09404617
-3.729973	分かれ	-0.1527229
-3.2074015	もの	-0.3733592
-4.1869555	多々	-0.09404617
-3.2909198	弟子	-0.1692554
-4.1869555	秋月	-0.09404617
-2.8775656	宗	-0.29337627
-4.1869555	淵	-0.09404617
-3.0498338	等	-0.21431656
-3.8795545	春	-0.09404617
-2.8775656	ら	-0.35857645
-3.990047	1420	-0.2205844
-1.9424134	年	-0.77602017
-4.1869555	赤浜	-0.09404617
-3.1373835	現在	-0.38677812
-3.990047	岡山	-0.2205844
-2.8957152	県	-0.22540902
-3.990047	総社	-0.2205844
-2.6378314	市	-0.6992158
-3.990047	生家	-0.09404617
-4.1869555	小田	-0.09404617
-3.2471561	氏	-0.17615277
-2.8272672	う	-0.16762184
-4.1869555	武家	-0.09404617
-4.1869555	幼	-0.09404617
-3.4571767	頃	-0.16778697
-3.990047	近く	-0.09404617
-4.1869555	宝福	-0.09404617
-2.1920562	(	-0.13306156
-2.1534836	)	-0.2849965
-3.3395927	10	-0.13591814
-2.9344618	歳	-0.36728072
-4.1869555	林	-0.09404617
-4.1869555	周藤	-0.09404617
-4.1869555	師事	-0.09404617
-3.3944173	禅	-0.27502406
-3.077102	修行	-0.30306682
-4.1869555	積	-0.09404617
-3.2471561	む	-0.110017866
-3.6189215	とも	-0.1781281
-4.1869555	天章	-0.09404617
-4.1869555	周文	-0.09404617
-3.8795545	絵	-0.09404617
-4.1869555	1454	-0.09404617
-3.729973	応永	-0.09404617
-3.6189215	28	-0.09404613
-4.1869555	ごろ	-0.09404617
-3.6189215	守護	-0.09404613
-3.8795545	大名	-0.09404617
-4.1869555	大内	-0.09404617
-4.1869555	庇護	-0.09404617
-4.1869555	画室	-0.09404617
-4.1869555	雲谷	-0.09404617
-3.8795545	庵	-0.1527229
-3.990047	山口	-0.09404617
-4.1869555	構え	-0.09404617
-3.990047	1465	-0.2205844
-3.990047	寛正	-0.2205844
-4.1869555	楚石	-0.09404617
-4.1869555	梵&29734	-0.09404617
-4.1869555	そせき	-0.09404617
-4.1869555	ぼんき	-0.09404617
-2.9999518	二	-0.14106269
-3.990047	大字	-0.09404617
-4.1869555	入手	-0.09404617
-4.1869555	龍崗	-0.09404617
-3.8795545	真	-0.09404617
-4.1869555	圭	-0.09404617
-3.2909198	字	-0.13227034
-2.9552135	説	-0.2832799
-4.1869555	請	-0.09404617
-3.6189215	以後	-0.1741864
-3.8795545	名乗	-0.1741864
-4.1869555	思	-0.09404617
-3.1709828	わ	-0.47251981
-3.5305624	これ	-0.23051164
-3.990047	以前	-0.2205844
-3.6189215	同一	-0.1741864
-3.1061976	こと	-0.45508587
-3.729973	示	-0.19215524
-2.8433948	す	-0.20580913
-3.990047	確実	-0.2205844
-3.990047	史料	-0.09404617
-4.1869555	1468	-0.09404617
-4.1869555	応仁	-0.09404617
-2.8433948	2	-0.41333973
-4.1869555	船	-0.09404617
-2.8272672	へ	-0.26265582
-4.1869555	渡航	-0.09404617
-3.8795545	約	-0.09404617
-3.3944173	年間	-0.1527229
-3.990047	本格	-0.2205844
-4.1869555	触れ	-0.09404617
-3.990047	研究	-0.09404617
-4.1869555	1481	-0.09404617
-3.8795545	文明	-0.09404617
-3.4571767	13	-0.1265994
-3.990047	秋	-0.09404617
-4.1869555	美濃	-0.09404617
-4.1869555	旅行	-0.09404617
-3.990047	没年	-0.09404617
-3.990047	記録	-0.09404617
-3.990047	1506	-0.2205844
-4.1869555	1502	-0.09404617
-3.990047	生涯	-0.1741864
-3.5305624	以外	-0.2824944
-4.1869555	謎	-0.09404617
-4.1869555	部分	-0.09404617
-3.0498338	つ	-0.19232814
-4.1869555	こんな	-0.09404617
-3.8795545	伝説	-0.22497278
-3.729973	残	-0.22497278
-3.990047	最も	-0.09404617
-3.6189215	よく	-0.19709072
-3.4571767	知	-0.47022173
-3.6189215	話	-0.14033619
-4.1869555	初出	-0.09404617
-3.5305624	江戸	-0.40279013
-2.977007	時代	-0.37560982
-3.990047	狩野	-0.09404617
-4.1869555	永納	-0.09404617
-3.5305624	編纂	-0.20367453
-2.8775656	『	-0.16791171
-4.1869555	本朝	-0.09404617
-3.729973	史	-0.09404617
-2.449735	』	-0.57088286
-4.1869555	1693	-0.09404617
-4.1869555	刊	-0.09404617
-3.8795545	神格	-0.2824944
-3.2909198	化	-0.18391213
-3.8795545	始ま	-0.1527229
-2.8775656	派	-0.2996438
-3.8795545	当時	-0.13227034
-4.1869555	画壇	-0.09404617
-3.990047	支配	-0.09404617
-3.5305624	師	-0.11915158
-4.1869555	仰	-0.09404617
-3.990047	ぎ	-0.2205844
-3.8795545	諸	-0.09404617
-3.990047	求め	-0.1527229
-3.3944173	作	-0.14579779
-4.1869555	増え	-0.09404617
-3.6189215	言	-0.22306496
-4.1869555	人気	-0.09404617
-4.1869555	反映	-0.09404617
-2.8775656	信仰	-0.30454367
-3.8795545	祇園	-0.1741864
-3.990047	祭	-0.09404617
-4.1869555	礼記	-0.09404617
-4.1869555	人形	-0.09404617
-3.8795545	浄瑠璃	-0.1741864
-4.1869555	歌舞伎	-0.09404617
-4.1869555	宝暦	-0.09404617
-3.2074015	7	-0.2515042
-3.3395927	12	-0.11447767
-3.077102	月	-0.18074627
-4.1869555	1758	-0.09404617
-3.1709828	1	-0.13864762
-4.1869555	初演	-0.09404617
-4.1869555	孫娘	-0.09404617
-4.1869555	雪姫	-0.09404617
-4.1869555	活躍	-0.09404617
-3.8795545	金閣	-0.2824944
-3.8795545	場	-0.09404617
-3.990047	有名	-0.1527229
-3.2471561	よう	-0.4600861
-4.1869555	上演	-0.09404617
-3.729973	文化	-0.1527229
-3.1373835	一	-0.13833566
-3.3944173	生	-0.12239434
-3.8795545	今	-0.1527229
-3.3395927	代表	-0.20917967
-3.3944173	歴史	-0.22256772
-3.8795545	一人	-0.1527229
-4.1869555	天橋立	-0.09404617
-3.8795545	国立	-0.2824944
-3.990047	博物	-0.2205844
-3.8795545	館	-0.19709072
-4.1869555	四季	-0.09404617
-3.5305624	巻	-0.13227034
-4.1869555	長巻	-0.09404617
-4.1869555	毛利	-0.09404617
-4.1869555	1486	-0.09404617
-3.6189215	18	-0.14033619
-4.1869555	秋冬	-0.09404617
-2.8775656	山	-0.17841028
-3.729973	水	-0.09404617
-3.4571767	東京	-0.18935633
-4.1869555	破墨	-0.09404617
-4.1869555	1495	-0.09404617
-3.990047	明応	-0.1527229
-3.1709828	4	-0.26527673
-4.1869555	慧可	-0.09404617
-4.1869555	断臂	-0.09404617
-3.8795545	愛知	-0.1741864
-4.1869555	斉	-0.09404617
-3.990047	1496	-0.2205844
-3.1709828	5	-0.2750381
-3.990047	個人	-0.09404617
-3.6189215	蔵	-0.19215524
-4.1869555	石橋	-0.09404617
-3.6189215	美術	-0.3240937
-4.1869555	小巻	-0.09404617
-3.990047	倣	-0.09404617
-3.6189215	高	-0.09404613
-4.1869555	克	-0.09404617
-4.1869555	恭	-0.09404617
-4.1869555	図巻	-0.09404617
-3.729973	立	-0.1527229
-3.990047	夏	-0.09404617
-4.1869555	珪	-0.09404617
-3.990047	李	-0.09404617
-3.5305624	唐	-0.1741864
-4.1869555	牧牛	-0.09404617
-4.1869555	梁	-0.09404617
-4.1869555	楷	-0.09404617
-3.990047	黄	-0.09404617
-3.8795545	初	-0.09404617
-4.1869555	平図	-0.09404617
-3.990047	玉	-0.09404617
-4.1869555	澗	-0.09404617
-4.1869555	香雪	-0.09404617
-3.990047	益田	-0.09404617
-4.1869555	兼堯	-0.09404617
-2.617829	像	-0.5887897
-4.1869555	市立	-0.09404617
-4.1869555	郷	-0.09404617
-4.1869555	記念	-0.09404617
-3.4571767	毘沙門	-0.3499115
-3.1709828	天	-0.21621877
-4.1869555	溌墨	-0.09404617
-4.1869555	正木	-0.09404617
-4.1869555	※	-0.09404617
-3.8795545	可能	-0.09404617
-3.4571767	性	-0.09404619
-3.990047	挙げ	-0.1741864
-3.990047	没後	-0.09404617
-3.729973	500	-0.22718367
-3.990047	特別	-0.09404617
-4.1869555	展	-0.09404617
-4.1869555	図録	-0.09404617
-3.990047	2002	-0.2205844
-4.1869555	画聖	-0.09404617
-4.1869555	沼田	-0.09404617
-4.1869555	頼輔	-0.09404617
-3.990047	論創	-0.09404617
-3.990047	叢書	-0.09404617
-3.729973	社	-0.2205844
-2.977007	3	-0.26441333
-4.1869555	ISBN	-0.09404617
-4.1869555	-8460	-0.09404617
-2.5217645	-	-0.115099944
-4.1869555	0241	-0.09404617
-4.1869555	応援	-0.09404617
-3.990047	団	-0.09404617
-4.1869555	山下	-0.09404617
-4.1869555	裕二	-0.09404617
-4.1869555	赤瀬川	-0.09404617
-4.1869555	原	-0.09404617
-4.1869555	平	-0.09404617
-3.2471561	一休	-0.15110923
-3.8795545	宗純	-0.09404617
-4.1869555	いっきゅう	-0.09404617
-4.1869555	そうじゅん	-0.09404617
-3.729973	室町	-0.40743315
-3.5305624	臨済	-0.2742175
-3.990047	大徳	-0.2205844
-4.1869555	禅僧	-0.09404617
-3.729973	説話	-0.1527229
-4.1869555	モデル	-0.09404617
-4.1869555	後小松	-0.09404617
-3.2471561	天皇	-0.23568127
-4.1869555	落胤	-0.09404617
-3.5305624	世	-0.23951197
-4.1869555	之	-0.09404617
-4.1869555	人無し	-0.09404617
-4.1869555	幼名	-0.09404617
-3.8795545	後世	-0.09404617
-3.729973	千	-0.09404617
-4.1869555	菊丸	-0.09404617
-3.6189215	長	-0.14033619
-3.077102	じ	-0.27573666
-3.990047	周建	-0.09404617
-3.2074015	名	-0.20703052
-3.6189215	呼	-0.2705616
-3.2909198	ば	-0.12920761
-3.729973	狂	-0.22718367
-3.8795545	雲	-0.09404617
-3.6189215	子	-0.14033619
-4.1869555	瞎驢	-0.09404617
-4.1869555	かつろ	-0.09404617
-4.1869555	夢	-0.09404617
-4.1869555	閨	-0.09404617
-4.1869555	むけい	-0.09404617
-3.729973	戒名	-0.09404617
-3.8795545	順	-0.09404617
-3.4571767	書	-0.09404617
-3.3395927	道	-0.16746855
-3.8795545	項目	-0.09404617
-3.729973	参照	-0.1781281
-4.1869555	安国	-0.09404617
-4.1869555	像外	-0.09404617
-4.1869555	集鑑	-0.09404617
-3.990047	入門	-0.09404617
-3.8795545	·	-0.09404617
-3.990047	受戒	-0.09404617
-4.1869555	名付け	-0.09404617
-2.7413626	られ	-0.79659927
-3.4571767	17	-0.16179194
-3.990047	1410	-0.2205844
-4.1869555	謙	-0.09404617
-4.1869555	翁	-0.09404617
-3.4571767	為	-0.16507299
-3.990047	けん	-0.09404613
-3.8795545	そう	-0.1527229
-4.1869555	改め	-0.09404617
-4.1869555	謙翁	-0.09404617
-3.5305624	21	-0.1265994
-4.1869555	1414	-0.09404617
-4.1869555	没	-0.09404617
-3.3395927	時	-0.25244296
-4.1869555	遷化	-0.09404617
-4.1869555	断定	-0.09404617
-3.3944173	でき	-0.40327492
-4.1869555	自殺	-0.09404617
-4.1869555	未遂	-0.09404617
-3.6189215	起こ	-0.18835945
-3.5305624	22	-0.1781281
-4.1869555	1415	-0.09404617
-3.4571767	高僧	-0.09404617
-4.1869555	華叟	-0.09404617
-3.990047	曇	-0.09404617
-4.1869555	そうそうどん	-0.09404617
-3.8795545	なお	-0.1265994
-4.1869555	有ろじ	-0.09404617
-4.1869555	有漏	-0.09404617
-3.990047	路	-0.2205844
-4.1869555	迷い	-0.09404617
-3.5305624	煩悩	-0.1781281
-3.8795545	世界	-0.09404613
-4.1869555	無ろじ	-0.09404617
-4.1869555	無漏	-0.09404617
-3.6189215	悟り	-0.2450749
-2.7681527	仏	-0.3605516
-3.990047	指	-0.09404617
-3.8795545	27	-0.09404617
-4.1869555	夜	-0.09404617
-4.1869555	カラス	-0.09404617
-4.1869555	鳴き声	-0.09404617
-3.8795545	聞	-0.1741864
-4.1869555	俄か	-0.09404617
-4.1869555	大悟	-0.09404617
-3.8795545	華	-0.1741864
-4.1869555	叟	-0.09404617
-3.8795545	印可	-0.09404617
-3.8795545	状	-0.09404617
-4.1869555	与え	-0.09404617
-4.1869555	辞退	-0.09404617
-4.1869555	はばか	-0.09404617
-3.024177	者	-0.19992515
-4.1869555	笑	-0.09404617
-3.729973	ながら	-0.09404613
-4.1869555	送り出	-0.09404617
-4.1869555	詩	-0.09404617
-4.1869555	狂歌	-0.09404617
-4.1869555	書画	-0.09404617
-4.1869555	風狂	-0.09404617
-4.1869555	生活	-0.09404617
-4.1869555	送	-0.09404617
-4.1869555	正長	-0.09404617
-3.0498338	元年	-1.035822
-4.1869555	1428	-0.09404617
-4.1869555	称光	-0.09404617
-3.990047	男子	-0.09404617
-3.2909198	ず	-0.23140335
-4.1869555	崩御	-0.09404617
-4.1869555	伏見	-0.09404617
-3.8795545	宮	-0.09404617
-2.9344618	より	-0.13152783
-4.1869555	花園	-0.09404617
-4.1869555	迎え	-0.09404617
-3.990047	即位	-0.09404617
-3.990047	後花園	-0.2205844
-4.1869555	推挙	-0.09404617
-3.3944173	東海	-0.17681022
-3.990047	和尚	-0.09404617
-4.1869555	年譜	-0.09404617
-4.1869555	ただし	-0.09404617
-4.1869555	今泉	-0.09404617
-4.1869555	淑夫	-0.09404617
-3.6189215	幕府	-0.1781281
-4.1869555	賛成	-0.09404617
-3.4571767	無	-0.16054134
-3.8795545	関係	-0.09404617
-3.990047	塔頭	-0.09404617
-4.1869555	真珠	-0.09404617
-3.3944173	開祖	-0.16547333
-3.8795545	創建	-0.1527229
-3.729973	親し	-0.2205844
-4.1869555	接せ	-0.09404617
-3.729973	民衆	-0.19215524
-4.1869555	慕	-0.09404617
-4.1869555	88	-0.09404617
-3.990047	酬恩	-0.2205844
-4.1869555	臨終	-0.09404617
-3.3944173	際	-0.23600864
-4.1869555	死	-0.09404617
-3.8795545	述べ	-0.1741864
-3.8795545	伝わ	-0.2205844
-3.729973	通称	-0.09404617
-3.729973	府	-0.12239434
-3.990047	京田辺	-0.2205844
-4.1869555	薪	-0.09404617
-4.1869555	地区	-0.09404617
-4.1869555	康正	-0.09404617
-4.1869555	1456	-0.09404617
-4.1869555	荒廃	-0.09404617
-4.1869555	妙勝	-0.09404617
-3.729973	再興	-0.09404613
-3.3944173	一般	-0.27627197
-4.1869555	立ち入り	-0.09404617
-3.6189215	参拝	-0.09404613
-3.6189215	不	-0.13227034
-4.1869555	自由	-0.09404617
-4.1869555	奔放	-0.09404617
-4.1869555	奇行	-0.09404617
-3.8795545	かっ	-0.2824944
-3.729973	以下	-0.16507299
-3.8795545	逸話	-0.1741864
-4.1869555	証明	-0.09404617
-3.729973	由来	-0.09404617
-4.1869555	文書	-0.09404617
-4.1869555	火中	-0.09404617
-4.1869555	投	-0.09404617
-4.1869555	朱鞘	-0.09404617
-4.1869555	木刀	-0.09404617
-3.990047	差	-0.09404617
-4.1869555	風変わり	-0.09404617
-4.1869555	格好	-0.09404617
-4.1869555	街	-0.09404617
-4.1869555	歩	-0.09404617
-2.977007	き	-0.2092095
-4.1869555	まわ	-0.09404617
-3.990047	親交	-0.09404617
-2.8433948	本願	-0.699689
-3.8795545	門主	-0.09404617
-3.2909198	蓮如	-0.14825512
-3.3395927	留守	-0.5793662
-3.2074015	中	-0.21390828
-4.1869555	居室	-0.09404617
-4.1869555	上がりこ	-0.09404617
-3.6189215	み	-0.14033619
-3.4571767	持	-0.12239434
-2.9344618	念仏	-0.22869205
-2.9552135	阿弥陀	-0.43357095
-2.8272672	如来	-0.35043722
-4.1869555	枕	-0.09404617
-4.1869555	昼寝	-0.09404617
-4.1869555	帰宅	-0.09404617
-3.3395927	上人	-0.184448
-4.1869555	俺	-0.09404617
-4.1869555	商売	-0.09404617
-4.1869555	道具	-0.09404617
-3.8795545	何	-0.09404617
-4.1869555	発言	-0.09404617
-4.1869555	正月	-0.09404617
-3.990047	杖	-0.09404617
-3.990047	頭	-0.09404617
-4.1869555	ドクロ	-0.09404617
-4.1869555	しつらえ	-0.09404617
-3.8795545	ご	-0.1741864
-4.1869555	用心	-0.09404617
-4.1869555	叫	-0.09404617
-3.6189215	び	-0.2450749
-4.1869555	練り歩	-0.09404617
-3.6189215	彼	-0.14825512
-4.1869555	禅風	-0.09404617
-4.1869555	直筆	-0.09404617
-4.1869555	法語	-0.09404617
-3.1709828	七	-0.1470247
-3.990047	通	-0.09404617
-4.1869555	誡偈	-0.09404617
-3.990047	伺え	-0.2205844
-4.1869555	能筆	-0.09404617
-4.1869555	村田	-0.09404617
-3.990047	珠光	-0.2205844
-3.990047	伝承	-0.09404617
-4.1869555	茶人	-0.09404617
-4.1869555	墨蹟	-0.09404617
-3.729973	極めて	-0.09404617
-4.1869555	珍重	-0.09404617
-4.1869555	やや	-0.09404617
-4.1869555	疑わし	-0.09404617
-4.1869555	著書	-0.09404617
-4.1869555	詩集	-0.09404617
-4.1869555	雲集	-0.09404617
-3.729973	続	-0.22718367
-4.1869555	自戒	-0.09404617
-3.4571767	集	-0.22306496
-4.1869555	骸骨	-0.09404617
-3.8795545	東山	-0.09404619
-3.990047	足利	-0.09404617
-4.1869555	義政	-0.09404617
-3.8795545	夫人	-0.09404617
-3.990047	日野	-0.09404617
-4.1869555	富子	-0.09404617
-4.1869555	幕政	-0.09404617
-3.6189215	批判	-0.19215524
-4.1869555	門松	-0.09404617
-4.1869555	冥土	-0.09404617
-3.990047	旅	-0.09404617
-3.990047	里	-0.09404617
-4.1869555	塚	-0.09404617
-3.990047	めで	-0.2205844
-4.1869555	なし	-0.09404617
-3.1373835	釈迦	-0.2830485
-3.3944173	ふ	-0.18835945
-4.1869555	づら	-0.09404617
-4.1869555	ほく	-0.09404617
-2.7545512	人	-0.3991562
-4.1869555	まよ	-0.09404617
-3.990047	秋風	-0.09404617
-4.1869555	一夜	-0.09404617
-4.1869555	百千	-0.09404617
-4.1869555	あなた	-0.09404617
-3.990047	共	-0.2205844
-3.8795545	それ	-0.184448
-3.729973	百	-0.09404617
-4.1869555	歳月	-0.09404617
-4.1869555	値	-0.09404617
-3.990047	女	-0.09404617
-3.1061976	法	-0.15694068
-4.1869555	御蔵	-0.09404617
-4.1869555	云	-0.09404617
-4.1869555	ぞ	-0.09404617
-4.1869555	実	-0.09404617
-4.1869555	達磨	-0.09404617
-4.1869555	ひょいひょい	-0.09404617
-4.1869555	無常	-0.09404617
-4.1869555	断章	-0.09404617
-4.1869555	収録	-0.09404617
-4.1869555	；	-0.09404617
-3.5305624	一部	-0.13227034
-4.1869555	抜け	-0.09404617
-3.990047	間違い	-0.09404617
-3.8795545	あり	-0.09404617
-4.1869555	乱世	-0.09404617
-3.990047	生き	-0.09404617
-4.1869555	禅者	-0.09404617
-4.1869555	市川	-0.09404617
-4.1869555	白弦	-0.09404617
-3.5305624	著	-0.20367453
-3.1373835	.	-0.1470247
-3.8795545	放送	-0.09404617
-3.8795545	出版	-0.09404617
-3.990047	協会	-0.09404617
-3.729973	,	-0.09404613
-4.1869555	1970	-0.09404617
-3.990047	NHK	-0.09404617
-4.1869555	ブックス	-0.09404617
-4.1869555	132	-0.09404617
-4.1869555	柳田	-0.09404617
-4.1869555	聖山	-0.09404617
-3.5305624	文	-0.09404619
-3.8795545	書院	-0.1741864
-4.1869555	1980	-0.09404617
-3.1709828	8	-0.21289018
-4.1869555	水上	-0.09404617
-4.1869555	勉	-0.09404617
-4.1869555	改版	-0.09404617
-3.6189215	中央	-0.09404613
-3.990047	公論	-0.09404617
-4.1869555	1997	-0.09404617
-4.1869555	中公	-0.09404617
-4.1869555	文庫	-0.09404617
-4.1869555	破戒	-0.09404617
-4.1869555	栗田	-0.09404617
-4.1869555	勇著	-0.09404617
-4.1869555	祥伝	-0.09404617
-3.990047	2005	-0.2205844
-3.2074015	11	-0.16179194
-4.1869555	ISBN4396612567	-0.09404617
-4.1869555	漫画	-0.09404617
-4.1869555	あっ	-0.09404617
-3.5305624	べ	-0.16507299
-4.1869555	ェ	-0.09404617
-4.1869555	坂口	-0.09404617
-3.990047	尚	-0.09404617
-3.990047	アニメ	-0.09404617
-3.3395927	さん	-0.23848344
-4.1869555	1975	-0.09404617
-3.5305624	15	-0.09404617
-2.9344618	日	-0.2309921
-4.1869555	1982	-0.09404617
-3.990047	東映	-0.09404617
-4.1869555	動画	-0.09404617
-3.729973	現	-0.13227034
-4.1869555	アニメーション	-0.09404617
-3.8795545	制作	-0.1741864
-4.1869555	教育	-0.09404617
-3.5305624	テレビ	-0.16179194
-4.1869555	朝日	-0.09404617
-4.1869555	系列	-0.09404617
-3.990047	R	-0.09404617
-4.1869555	O.	-0.09404617
-4.1869555	D	-0.09404617
-4.1869555	READORDIE	-0.09404617
-4.1869555	2001	-0.09404617
-3.990047	かけ	-0.09404617
-4.1869555	発売	-0.09404617
-4.1869555	OVA	-0.09404617
-3.8795545	全	-0.09404617
-4.1869555	スタジオ	-0.09404617
-4.1869555	オルフェ	-0.09404617
-3.2074015	/	-0.19299139
-4.1869555	ANIPLEX	-0.09404617
-3.990047	製作	-0.09404617
-4.1869555	小説	-0.09404617
-4.1869555	とん	-0.09404617
-3.729973	ち	-0.22718367
-4.1869555	探偵	-0.09404617
-4.1869555	密室	-0.09404617
-4.1869555	ひそかむろ	-0.09404617
-4.1869555	鯨	-0.09404617
-4.1869555	統一郎	-0.09404617
-4.1869555	謎解き	-0.09404617
-4.1869555	道中	-0.09404617
-4.1869555	暗夜行	-0.09404617
-3.729973	朝	-0.09404617
-3.990047	松	-0.09404617
-4.1869555	健	-0.09404617
-4.1869555	闇	-0.09404617
-3.6189215	物語	-0.14033619
-4.1869555	虚	-0.09404617
-2.977007	行	-0.20239145
-4.1869555	破軍	-0.09404617
-4.1869555	ドラマ	-0.09404617
-3.990047	花	-0.09404617
-4.1869555	乱	-0.09404617
-4.1869555	1994	-0.09404617
-2.5987074	：	-0.10641746
-4.1869555	奥田	-0.09404617
-4.1869555	瑛二	-0.09404617
-4.1869555	バラエティー	-0.09404617
-4.1869555	サスペンス	-0.09404617
-4.1869555	劇場	-0.09404617
-4.1869555	2008	-0.09404617
-4.1869555	加藤	-0.09404617
-4.1869555	茶	-0.09404617
-4.1869555	伝記	-0.09404617
-3.990047	幼少	-0.2205844
-3.8795545	期	-0.1527229
-3.990047	頓知	-0.09404617
-4.1869555	小僧	-0.09404617
-4.1869555	青年	-0.09404617
-3.729973	厳し	-0.40743315
-4.1869555	名僧	-0.09404617
-3.990047	子供	-0.09404617
-3.990047	向け	-0.2205844
-3.6189215	特に	-0.10575749
-3.990047	傾向	-0.2205844
-3.729973	強	-0.22718367
-3.3395927	また	-0.17923814
-4.1869555	義満	-0.09404617
-4.1869555	やり込め	-0.09404617
-4.1869555	添え	-0.09404617
-4.1869555	名前	-0.09404617
-4.1869555	明示	-0.09404617
-4.1869555	咄	-0.09404617
-4.1869555	作者	-0.09404617
-4.1869555	不明	-0.09404617
-3.8795545	願い	-0.1741864
-3.3395927	上	-0.20091914
-4.1869555	仮託	-0.09404617
-3.990047	読物	-0.09404617
-4.1869555	子ども	-0.09404617
-3.1373835	ま	-0.34014067
-4.1869555	翻案	-0.09404617
-4.1869555	TV	-0.09404617
-3.8795545	三尊	-0.14033619
-3.8795545	あみだ	-0.09404617
-4.1869555	ぞん	-0.09404617
-2.8957152	仏教	-0.30969685
-4.1869555	おけ	-0.09404617
-3.729973	仏像	-0.1527229
-3.2909198	安置	-0.31103408
-3.4571767	形式	-0.20367453
-3.2909198	場合	-0.21605422
-3.8795545	左	-0.1741864
-3.729973	右	-0.1527229
-3.990047	中尊	-0.09404617
-3.1709828	見	-0.21289018
-2.4988742	観音	-0.550867
-2.704042	菩薩	-0.42472
-3.990047	慈悲	-0.09404617
-4.1869555	あらわ	-0.09404617
-3.8795545	化身	-0.14033619
-3.6189215	勢至	-0.3240937
-4.1869555	知恵	-0.09404617
-3.6189215	脇侍	-0.1265994
-4.1869555	宝冠	-0.09404617
-4.1869555	化仏	-0.09404617
-3.729973	表	-0.22497278
-3.8795545	水瓶	-0.09404617
-4.1869555	両脇侍	-0.09404617
-3.990047	比較	-0.2205844
-3.6189215	区別	-0.09404613
-3.990047	つけ	-0.09404617
-4.1869555	やす	-0.09404617
-4.1869555	地蔵	-0.09404617
-3.990047	龍樹	-0.1527229
-3.990047	含め	-0.1741864
-3.1373835	五	-0.14033619
-4.1869555	尊像	-0.09404617
-3.3395927	作例	-0.14033619
-3.990047	主な	-0.1741864
-3.990047	岩手	-0.09404617
-3.8795545	中尊寺	-0.09404617
-3.729973	金色	-0.1527229
-2.9999518	堂	-0.2518534
-3.8795545	壇	-0.09404617
-4.1869555	左壇	-0.09404617
-3.8795545	組	-0.09404617
-3.4571767	平安	-0.35421935
-3.729973	清凉	-0.40743315
-3.729973	仁和	-0.19709072
-3.8795545	三千	-0.2824944
-2.5628188	院	-0.46031797
-3.990047	兵庫	-0.09404617
-2.8957152	浄土	-0.38266844
-3.3395927	小野	-0.31281897
-3.2909198	鎌倉	-0.2750381
-3.990047	快慶	-0.2205844
-3.2909198	奈良	-0.29523543
-3.729973	法隆	-0.22718367
-3.990047	橘	-0.2205844
-3.990047	念	-0.09404617
-3.729973	関連	-0.09404613
-3.990047	善光	-0.2205844
-3.990047	式	-0.09404617
-2.8957152	三	-0.16310138
-3.0498338	尊	-0.16682556
-3.024177	親鸞	-0.23825234
-4.1869555	しんらん	-0.09404617
-3.5305624	初期	-0.20091914
-3.3395927	僧	-0.110017866
-3.5305624	真宗	-0.16302814
-3.6189215	宗祖	-0.12239434
-3.8795545	定め	-0.1527229
-3.2909198	覚如	-0.17104971
-3.4571767	明治	-0.115475014
-3.3395927	9	-0.2639604
-4.1869555	1876	-0.09404617
-3.2909198	大師	-0.22142136
-4.1869555	けんし	-0.09404617
-3.8795545	だいし	-0.2824944
-4.1869555	諡	-0.09404617
-4.1869555	追贈	-0.09404617
-3.8795545	自ら	-0.19709072
-3.8795545	開宗	-0.09404617
-4.1869555	意志	-0.09404617
-3.6189215	考え	-0.1741864
-3.5305624	独自	-0.5835244
-3.077102	寺院	-0.17100589
-3.3395927	事	-0.15459421
-3.4571767	各地	-0.26166645
-4.1869555	つつまし	-0.09404617
-3.729973	道場	-0.14033619
-3.8795545	設け	-0.1527229
-3.5305624	教化	-0.13227034
-3.3944173	形	-0.18835945
-3.2471561	…	-0.11205522
-3.4571767	称名	-0.3499115
-3.4571767	教え	-0.19832991
-4.1869555	説き示	-0.09404617
-4.1869555	受け伝え	-0.09404617
-4.1869555	選定	-0.09404617
-3.3395927	インド	-0.2545474
-3.729973	十住	-0.09404617
-4.1869555	毘婆沙	-0.09404617
-2.977007	論	-0.291526
-4.1869555	易行	-0.09404617
-2.8117173	品	-0.5555774
-2.8433948	十	-0.4267131
-4.1869555	礼	-0.09404617
-3.990047	世親	-0.09404617
-3.4571767	無量寿	-0.6504712
-2.704042	経	-0.41662946
-4.1869555	優婆提舎	-0.09404617
-4.1869555	願生偈	-0.09404617
-3.990047	曇鸞	-0.1741864
-4.1869555	どんらん	-0.09404617
-4.1869555	願生偈註	-0.09404617
-3.990047	註	-0.09404617
-3.6189215	讃	-0.14033619
-3.8795545	陀	-0.1741864
-4.1869555	佛偈	-0.09404617
-4.1869555	道綽	-0.09404617
-4.1869555	どうしゃく	-0.09404617
-3.8795545	ぜん	-0.1741864
-3.8795545	安楽	-0.1741864
-4.1869555	源信	-0.09404617
-4.1869555	_	-0.09404617
-3.4571767	僧侶	-0.1527229
-3.990047	げん	-0.09404617
-3.1709828	しん	-0.61206406
-3.5305624	しょ	-0.5835244
-3.2909198	往生	-0.16746855
-4.1869555	要集	-0.09404617
-4.1869555	源空	-0.09404617
-3.990047	聖人	-0.09404617
-3.2471561	法然	-0.18554509
-3.8795545	選択	-0.1527229
-3.8795545	聖徳	-0.2824944
-3.6189215	太子	-0.1265994
-4.1869555	和国	-0.09404617
-3.990047	教主	-0.09404617
-3.8795545	尊敬	-0.09404617
-3.8795545	崇拝	-0.09404617
-3.2471561	条	-0.40327492
-4.1869555	憲法	-0.09404617
-4.1869555	佛説	-0.09404617
-2.9146566	大	-0.1408064
-3.729973	中心	-0.1781281
-2.9344618	経典	-0.30744392
-3.990047	最	-0.2205844
-3.2074015	重要	-0.35212243
-3.729973	視	-0.29191956
-3.990047	他力	-0.1741864
-4.1869555	たりき	-0.09404617
-4.1869555	ほんがん	-0.09404617
-3.3944173	ぶ	-0.153782
-3.6189215	ここ	-0.26166645
-4.1869555	凡夫	-0.09404617
-3.6189215	智慧	-0.19709072
-4.1869555	持ち合わせ	-0.09404617
-3.990047	末法	-0.2205844
-3.729973	すべて	-0.15553294
-4.1869555	しかし	-0.09404617
-4.1869555	自力	-0.09404617
-3.4571767	開	-0.20974766
-3.990047	こ	-0.09404617
-4.1869555	難行道	-0.09404617
-4.1869555	選	-0.09404617
-4.1869555	否定	-0.09404617
-4.1869555	働き	-0.09404617
-3.4571767	力	-0.12239434
-4.1869555	悪人	-0.09404617
-4.1869555	正機	-0.09404617
-3.3395927	思想	-0.1818096
-3.990047	既に	-0.09404617
-3.4571767	教義	-0.11915158
-3.990047	整備	-0.09404617
-4.1869555	悪	-0.09404617
-4.1869555	手段	-0.09404617
-3.990047	行為	-0.09404617
-3.990047	しか	-0.09404617
-4.1869555	成せ	-0.09404617
-3.2074015	大乗	-0.24480936
-4.1869555	無我	-0.09404617
-3.990047	ひと	-0.2205844
-4.1869555	到達	-0.09404617
-3.3944173	方	-0.1741864
-4.1869555	超え	-0.09404617
-4.1869555	違い	-0.09404617
-4.1869555	年齢	-0.09404617
-4.1869555	数え年	-0.09404617
-4.1869555	年月日	-0.09404617
-4.1869555	暦	-0.09404617
-3.990047	正確	-0.09404617
-3.729973	著作	-0.13227034
-4.1869555	整合	-0.09404617
-4.1869555	保	-0.09404617
-3.990047	旧暦	-0.09404617
-4.1869555	表示	-0.09404617
-4.1869555	歿年	-0.09404617
-4.1869555	月日	-0.09404617
-3.8795545	除	-0.1741864
-3.729973	比叡山	-0.13227034
-3.3395927	20	-0.14825512
-4.1869555	限界	-0.09404617
-4.1869555	感じ	-0.09404617
-4.1869555	一生	-0.09404617
-3.729973	荘厳	-0.09404617
-4.1869555	死に	-0.09404617
-4.1869555	引	-0.09404617
-3.729973	導	-0.09404617
-3.4571767	極楽	-0.2450749
-4.1869555	させ	-0.09404617
-4.1869555	偈句	-0.09404617
-3.990047	得	-0.14033619
-4.1869555	夢告	-0.09404617
-3.6189215	従	-0.13227034
-4.1869555	夜明け	-0.09404617
-3.990047	吉水	-0.09404617
-3.3395927	区	-0.15459421
-4.1869555	円山	-0.09404617
-3.1709828	町	-0.34074402
-4.1869555	草庵	-0.09404617
-4.1869555	安養	-0.09404617
-4.1869555	付近	-0.09404617
-4.1869555	訪ね	-0.09404617
-4.1869555	69	-0.09404617
-3.3944173	専修	-0.35917595
-3.990047	決意	-0.09404617
-4.1869555	研鑽	-0.09404617
-3.990047	しだい	-0.2205844
-3.990047	書写	-0.09404617
-3.990047	門弟	-0.09404617
-4.1869555	ごく	-0.09404617
-3.6189215	許	-0.50434315
-3.3944173	元	-0.14251946
-4.1869555	九条	-0.09404617
-4.1869555	兼実	-0.09404617
-4.1869555	娘	-0.09404617
-4.1869555	玉日	-0.09404617
-3.990047	又	-0.2205844
-3.8795545	三善	-0.09404617
-3.729973	恵信	-0.40743315
-3.077102	尼	-0.17885412
-3.990047	結婚	-0.09404617
-3.990047	配流	-0.1741864
-4.1869555	罪人	-0.09404617
-4.1869555	妻帯	-0.09404617
-3.990047	近年	-0.09404617
-4.1869555	有力	-0.09404617
-3.8795545	＝	-0.09404617
-4.1869555	婚姻	-0.09404617
-3.729973	多数	-0.22718367
-4.1869555	御伝	-0.09404617
-3.6189215	鈔	-0.3240937
-3.729973	記述	-0.19215524
-4.1869555	誤記	-0.09404617
-3.2074015	西	-0.2564628
-3.024177	本	-0.120305374
-3.990047	六角	-0.09404617
-4.1869555	告	-0.09404617
-3.8795545	命	-0.09404617
-3.3395927	のみ	-0.11657469
-3.990047	建仁	-0.09404617
-3.729973	記	-0.09404617
-3.990047	僧籍	-0.2205844
-4.1869555	剥奪	-0.09404617
-4.1869555	藤井	-0.09404617
-4.1869555	元彦	-0.09404617
-4.1869555	俗名	-0.09404617
-3.990047	善信	-0.09404617
-4.1869555	ふじい	-0.09404617
-4.1869555	ざ	-0.09404617
-4.1869555	ね	-0.09404617
-4.1869555	土佐	-0.09404617
-3.8795545	高知	-0.1741864
-3.729973	越後	-0.1527229
-4.1869555	国府	-0.09404617
-3.8795545	新潟	-0.1741864
-4.1869555	この頃	-0.09404617
-4.1869555	豪族	-0.09404617
-4.1869555	則	-0.09404617
-3.8795545	え	-0.09404617
-4.1869555	もうけ	-0.09404617
-3.990047	建暦	-0.1741864
-4.1869555	1211	-0.09404617
-3.990047	流罪	-0.2205844
-4.1869555	罪	-0.09404617
-4.1869555	赦	-0.09404617
-4.1869555	1212	-0.09404617
-3.8795545	25	-0.09404617
-3.8795545	80	-0.2824944
-3.729973	入滅	-0.09404617
-3.8795545	度	-0.09404617
-3.729973	･	-0.09404617
-3.4571767	会	-0.15553294
-4.1869555	出来	-0.09404617
-3.990047	帰	-0.09404617
-4.1869555	とどま	-0.09404617
-3.8795545	拠点	-0.09404617
-4.1869555	精力	-0.09404617
-3.5305624	布教	-0.1527229
-3.2471561	活動	-0.22277305
-3.8795545	東国	-0.2824944
-3.5305624	関東	-0.09404617
-3.8795545	及	-0.09404617
-4.1869555	高弟	-0.09404617
-3.5305624	二十	-0.16054134
-3.077102	四	-0.16507299
-4.1869555	輩	-0.09404617
-3.6189215	24	-0.09404613
-3.3395927	たち	-0.22277305
-4.1869555	常陸	-0.09404617
-3.990047	下野	-0.09404617
-4.1869555	開山	-0.09404617
-3.990047	43	-0.09404617
-4.1869555	ヶ寺	-0.09404617
-4.1869555	存続	-0.09404617
-4.1869555	天福	-0.09404617
-4.1869555	1234	-0.09404617
-4.1869555	取締	-0.09404617
-4.1869555	令	-0.09404617
-3.8795545	出	-0.1527229
-3.990047	62	-0.09404617
-3.8795545	帰京	-0.09404617
-4.1869555	励	-0.09404617
-3.990047	様々	-0.1741864
-3.990047	異義	-0.2205844
-4.1869555	異端	-0.09404617
-3.990047	取	-0.09404617
-4.1869555	沙汰	-0.09404617
-3.8795545	様	-0.09404617
-4.1869555	宝治	-0.09404617
-4.1869555	1248	-0.09404617
-3.5305624	和讃	-0.22387151
-3.729973	撰述	-0.1527229
-3.990047	建長	-0.09404617
-4.1869555	1250	-0.09404617
-4.1869555	唯信	-0.09404617
-3.990047	文意	-0.2205844
-3.8795545	盛岡	-0.1741864
-3.990047	本誓	-0.09404617
-4.1869555	蔵本	-0.09404617
-4.1869555	1251	-0.09404617
-3.729973	有	-0.1527229
-4.1869555	無念	-0.09404617
-4.1869555	諍	-0.09404617
-4.1869555	書状	-0.09404617
-4.1869555	制止	-0.09404617
-4.1869555	1252	-0.09404617
-4.1869555	類聚	-0.09404617
-3.5305624	じょう	-0.1265994
-3.729973	ど	-0.09404613
-3.5305624	もん	-0.13227034
-4.1869555	じゅ	-0.09404617
-3.6189215	如信	-0.09404613
-3.990047	陸奥	-0.2205844
-3.990047	大網	-0.09404617
-3.8795545	にて	-0.09404617
-3.8795545	続け	-0.09404613
-3.1373835	門徒	-0.17756276
-4.1869555	規模	-0.09404617
-4.1869555	集団	-0.09404617
-3.990047	築	-0.09404617
-4.1869555	1254	-0.09404617
-4.1869555	身の回り	-0.09404617
-4.1869555	世話	-0.09404617
-3.990047	末娘	-0.2205844
-3.6189215	覚信	-0.50434315
-4.1869555	任せ	-0.09404617
-4.1869555	故郷	-0.09404617
-3.5305624	伝え	-0.286014
-4.1869555	帰郷	-0.09404617
-3.729973	理由	-0.1741864
-4.1869555	親族	-0.09404617
-4.1869555	土地	-0.09404617
-4.1869555	管理	-0.09404617
-4.1869555	1256	-0.09404617
-3.990047	入出	-0.2205844
-3.4571767	門	-0.12239434
-3.729973	偈	-0.09404617
-3.8795545	福井	-0.1741864
-4.1869555	法雲	-0.09404617
-3.990047	寺本	-0.09404617
-4.1869555	同年	-0.09404617
-3.729973	29	-0.1527229
-3.6189215	付	-0.14033619
-4.1869555	手紙	-0.09404617
-4.1869555	善鸞	-0.09404617
-4.1869555	義絶	-0.09404617
-4.1869555	歎異	-0.09404617
-3.8795545	抄	-0.2824944
-2.9344618	第	-0.20604895
-4.1869555	想起	-0.09404617
-3.990047	衆	-0.09404617
-4.1869555	訪問	-0.09404617
-3.8795545	前後	-0.09404617
-4.1869555	康元	-0.09404617
-4.1869555	種	-0.09404617
-3.990047	回向	-0.1741864
-4.1869555	往	-0.09404617
-3.8795545	相	-0.1741864
-4.1869555	還	-0.09404617
-3.729973	類	-0.09404617
-4.1869555	正嘉	-0.09404617
-4.1869555	1258	-0.09404617
-4.1869555	尊号	-0.09404617
-4.1869555	真像	-0.09404617
-3.990047	銘文	-0.09404617
-4.1869555	広本	-0.09404617
-3.990047	正像	-0.2205844
-3.8795545	末	-0.14033619
-4.1869555	帖	-0.09404617
-3.8795545	総称	-0.1527229
-4.1869555	書簡	-0.09404617
-4.1869555	末燈	-0.09404617
-3.5305624	覚	-0.09404617
-3.3395927	御	-0.14825512
-3.8795545	消息	-0.1527229
-4.1869555	善性	-0.09404617
-3.3944173	地	-0.14825512
-4.1869555	押小路	-0.09404617
-3.6189215	南	-0.09404617
-3.990047	万里小路	-0.09404617
-3.2909198	東	-0.2450749
-3.729973	善法	-0.25666207
-3.729973	〈	-0.09404617
-3.8795545	坊	-0.09404613
-3.5305624	〉	-0.1741864
-4.1869555	諸説	-0.09404617
-3.3944173	場所	-0.23600864
-4.1869555	角	-0.09404617
-3.4571767	別院	-0.11915158
-4.1869555	弟	-0.09404617
-4.1869555	尋有	-0.09404617
-4.1869555	僧都	-0.09404617
-3.8795545	じん	-0.09404617
-4.1869555	見取	-0.09404617
-4.1869555	遺骨	-0.09404617
-4.1869555	鳥	-0.09404617
-3.2909198	部	-0.11657469
-4.1869555	野	-0.09404617
-4.1869555	北辺	-0.09404617
-3.1373835	大谷	-0.15644458
-4.1869555	納め	-0.09404617
-4.1869555	非僧	-0.09404617
-4.1869555	非俗	-0.09404617
-3.8795545	立場	-0.1741864
-4.1869555	貫	-0.09404617
-3.729973	報恩	-0.09404617
-4.1869555	感謝	-0.09404617
-4.1869555	祥月	-0.09404617
-4.1869555	命日	-0.09404617
-3.6189215	講	-0.19215524
-3.990047	法要	-0.09404617
-4.1869555	営	-0.09404617
-4.1869555	鳥辺	-0.09404617
-4.1869555	山南	-0.09404617
-3.990047	辺	-0.09404617
-3.990047	大谷本	-0.2205844
-4.1869555	廟	-0.09404617
-3.8795545	荼毘	-0.1741864
-3.3395927	所	-0.112737834
-3.990047	延仁	-0.2205844
-3.8795545	熊野	-0.09404617
-4.1869555	光勝	-0.09404617
-4.1869555	聖人像	-0.09404617
-4.1869555	永仁	-0.09404617
-4.1869555	1295	-0.09404617
-3.729973	御影	-0.3240937
-4.1869555	影	-0.09404617
-4.1869555	応長	-0.09404617
-3.990047	1312	-0.2205844
-3.990047	額	-0.2205844
-4.1869555	掲げ	-0.09404617
-4.1869555	叡山	-0.09404617
-3.8795545	反対	-0.09404617
-4.1869555	撤去	-0.09404617
-4.1869555	漢文	-0.09404617
-3.990047	顕	-0.09404617
-3.990047	真実	-0.09404617
-3.8795545	教行	-0.1741864
-3.990047	証文	-0.09404617
-3.8795545	略	-0.1741864
-3.8795545	信証	-0.09404617
-4.1869555	正信	-0.09404617
-4.1869555	末尾	-0.09404617
-4.1869555	句	-0.09404617
-4.1869555	要点	-0.09404617
-4.1869555	書物	-0.09404617
-4.1869555	愚禿	-0.09404617
-4.1869555	和文	-0.09404617
-4.1869555	文類	-0.09404617
-4.1869555	一念	-0.09404617
-4.1869555	多念	-0.09404617
-3.5305624	弥陀	-0.1265994
-3.8795545	名号	-0.09404617
-3.8795545	徳	-0.09404617
-4.1869555	書籍	-0.09404617
-3.5305624	出家	-0.1265994
-4.1869555	倉田	-0.09404617
-4.1869555	百三	-0.09404617
-3.990047	白	-0.2205844
-4.1869555	三國	-0.09404617
-4.1869555	連太郎	-0.09404617
-4.1869555	1987	-0.09404617
-4.1869555	松竹	-0.09404617
-4.1869555	映画	-0.09404617
-4.1869555	橋	-0.09404617
-4.1869555	聖人伝	-0.09404617
-4.1869555	津本	-0.09404617
-3.990047	陽	-0.09404617
-4.1869555	じょうどしゅう	-0.09404617
-3.2471561	教	-0.21037954
-4.1869555	宗旨	-0.09404617
-3.2909198	宗派	-0.19833592
-3.5305624	本尊	-0.13591814
-3.8795545	舟	-0.09404617
-4.1869555	後光	-0.09404617
-3.8795545	父	-0.09404617
-4.1869555	漆間	-0.09404617
-4.1869555	時国	-0.09404617
-4.1869555	遺言	-0.09404617
-3.729973	通り	-0.09404613
-4.1869555	誓	-0.09404617
-4.1869555	登	-0.09404617
-3.729973	前	-0.09404613
-3.990047	叔父	-0.09404617
-3.8795545	菩提	-0.09404617
-3.990047	そこ	-0.09404617
-3.4571767	住職	-0.1741864
-4.1869555	観覚	-0.09404617
-3.6189215	下	-0.22497278
-3.990047	勉学	-0.09404617
-3.5305624	根本	-0.1265994
-4.1869555	中堂	-0.09404617
-4.1869555	於	-0.09404617
-3.990047	源光	-0.09404617
-4.1869555	皇円	-0.09404617
-3.990047	阿闍梨	-0.09404617
-4.1869555	丸	-0.09404617
-3.990047	1147	-0.2205844
-3.729973	正式	-0.1527229
-3.5305624	得度	-0.13227034
-3.990047	立教	-0.09404617
-3.8795545	観経	-0.1741864
-3.8795545	疏	-0.14033619
-4.1869555	至	-0.09404617
-3.729973	文字	-0.12239434
-3.6189215	ずる	-0.09404613
-4.1869555	一心	-0.09404617
-4.1869555	専念	-0.09404617
-4.1869555	行住	-0.09404617
-4.1869555	坐臥	-0.09404617
-4.1869555	不問	-0.09404617
-4.1869555	時節	-0.09404617
-4.1869555	久	-0.09404617
-3.990047	近	-0.09404617
-4.1869555	念念	-0.09404617
-4.1869555	捨者	-0.09404617
-4.1869555	是	-0.09404617
-4.1869555	正	-0.09404617
-4.1869555	定之	-0.09404617
-4.1869555	業	-0.09404617
-3.8795545	佛	-0.09404617
-3.990047	願	-0.09404617
-4.1869555	故	-0.09404617
-3.990047	南無	-0.09404617
-3.8795545	帰依	-0.14033619
-4.1869555	良	-0.09404617
-4.1869555	聖典	-0.09404617
-4.1869555	集大成	-0.09404617
-4.1869555	赦免	-0.09404617
-4.1869555	入京	-0.09404617
-4.1869555	禁	-0.09404617
-4.1869555	摂津	-0.09404617
-4.1869555	勝尾	-0.09404617
-4.1869555	復帰	-0.09404617
-4.1869555	翌年	-0.09404617
-4.1869555	閉じ	-0.09404617
-4.1869555	発端	-0.09404617
-4.1869555	法性	-0.09404617
-4.1869555	寺宝	-0.09404617
-4.1869555	盗	-0.09404617
-3.990047	盗賊	-0.09404617
-4.1869555	一味	-0.09404617
-4.1869555	疑	-0.09404617
-4.1869555	幸西	-0.09404617
-4.1869555	壱岐	-0.09404617
-4.1869555	隆寛	-0.09404617
-4.1869555	遺骸	-0.09404617
-4.1869555	太秦	-0.09404617
-3.8795545	広隆	-0.2824944
-4.1869555	来迎	-0.09404617
-3.990047	房	-0.09404617
-4.1869555	円空	-0.09404617
-4.1869555	託	-0.09404617
-4.1869555	1228	-0.09404617
-4.1869555	安貞	-0.09404617
-3.3395927	西山	-0.27379718
-3.990047	粟	-0.09404617
-4.1869555	生野	-0.09404617
-3.1709828	流	-0.268316
-4.1869555	じょうどし	-0.09404617
-3.8795545	りゅう	-0.14033619
-3.990047	流れ	-0.2205844
-4.1869555	形成	-0.09404617
-4.1869555	聖聡	-0.09404617
-3.8795545	増上	-0.2824944
-3.8795545	孫	-0.09404617
-4.1869555	あた	-0.09404617
-4.1869555	愚底	-0.09404617
-3.990047	松平	-0.2205844
-4.1869555	親忠	-0.09404617
-4.1869555	乞	-0.09404617
-4.1869555	大樹	-0.09404617
-3.990047	更に	-0.09404617
-4.1869555	末裔	-0.09404617
-3.5305624	徳川	-0.1781281
-3.8795545	家康	-0.14033619
-4.1869555	手厚	-0.09404617
-3.8795545	保護	-0.1741864
-3.6189215	知恩	-0.25666207
-4.1869555	尊照	-0.09404617
-4.1869555	存応	-0.09404617
-4.1869555	崇敬	-0.09404617
-3.8795545	対	-0.09404617
-4.1869555	別個	-0.09404617
-3.8795545	法度	-0.09404617
-3.8795545	将軍	-0.09404617
-4.1869555	ひいては	-0.09404617
-4.1869555	幕藩	-0.09404617
-4.1869555	体制	-0.09404617
-3.4571767	宗教	-0.18391213
-3.990047	法人	-0.09404613
-3.8795545	役員	-0.1527229
-3.5305624	宗務	-0.13227034
-4.1869555	総長	-0.09404617
-3.990047	責任	-0.09404617
-3.990047	内局	-0.09404617
-3.8795545	一方	-0.1741864
-3.8795545	禅林	-0.2824944
-3.990047	深草	-0.2205844
-4.1869555	並立	-0.09404617
-3.990047	状態	-0.09404617
-4.1869555	改革	-0.09404617
-3.6189215	運動	-0.14033619
-3.990047	分裂	-0.09404617
-4.1869555	捨世派	-0.09404617
-4.1869555	勢力	-0.09404617
-3.3395927	存在	-0.3240937
-3.729973	特徴	-0.09404613
-3.729973	善導	-0.09404613
-4.1869555	注	-0.09404617
-3.8795545	下記	-0.1527229
-4.1869555	二名	-0.09404617
-3.990047	鎮西	-0.1527229
-3.4571767	祖	-0.11915158
-4.1869555	源智	-0.09404617
-4.1869555	弁長	-0.09404617
-4.1869555	良忠	-0.09404617
-4.1869555	一名	-0.09404617
-3.990047	禅林寺	-0.09404617
-4.1869555	證空	-0.09404617
-3.990047	教典	-0.09404617
-3.729973	仏説	-0.09404617
-3.5305624	観	-0.21020864
-4.1869555	枚	-0.09404617
-4.1869555	起請	-0.09404617
-4.1869555	いちまい	-0.09404617
-4.1869555	紙	-0.09404617
-3.8795545	小	-0.09404617
-4.1869555	いっし	-0.09404617
-3.3944173	しょう	-0.12435163
-4.1869555	そく	-0.09404617
-3.990047	歌	-0.09404617
-4.1869555	月影	-0.09404617
-4.1869555	いたら	-0.09404617
-3.8795545	ぬ	-0.09404617
-4.1869555	けれど	-0.09404617
-4.1869555	眺む	-0.09404617
-3.2909198	心	-0.18664496
-4.1869555	ぞす	-0.09404617
-4.1869555	宗歌	-0.09404617
-4.1869555	霊場	-0.09404617
-3.3395927	八	-0.14383933
-3.990047	番	-0.09404617
-4.1869555	月輪	-0.09404617
-3.990047	詠歌	-0.09404617
-3.4571767	総	-0.47022173
-3.3944173	本山	-0.18222854
-4.1869555	華頂	-0.09404617
-4.1869555	永観堂	-0.09404617
-3.8795545	光明寺	-0.1741864
-4.1869555	長岡京	-0.09404617
-4.1869555	京極	-0.09404617
-3.990047	誓願	-0.09404617
-4.1869555	縁	-0.09404617
-4.1869555	都	-0.09404613
-4.1869555	http	-0.09404617
-4.1869555	www	-0.09404617
-4.1869555	zojoji	-0.09404617
-4.1869555	or	-0.09404617
-4.1869555	jp	-0.09404617
-4.1869555	紫雲山	-0.09404617
-4.1869555	金戒	-0.09404617
-4.1869555	kurodani	-0.09404617
-3.990047	.jp	-0.2205844
-4.1869555	天照	-0.09404617
-4.1869555	park	-0.09404617
-3.4571767	16	-0.1265994
-4.1869555	wakwak	-0.09404617
-4.1869555	com	-0.09404617
-3.990047	~	-0.09404617
-4.1869555	komyo	-0.09404617
-4.1869555	-ji/	-0.09404617
-4.1869555	万遍	-0.09404617
-4.1869555	jodo	-0.09404617
-4.1869555	.jp/290004	-0.09404617
-4.1869555	03	-0.09404617
-4.1869555	井上	-0.09404617
-3.990047	福岡	-0.09404617
-4.1869555	www5	-0.09404617
-4.1869555	.ocn	-0.09404617
-4.1869555	ne	-0.09404617
-4.1869555	jp/	-0.09404617
-4.1869555	zendoji	-0.09404617
-4.1869555	長野	-0.09404617
-4.1869555	daihongan	-0.09404617
-4.1869555	zenkoji	-0.09404617
-3.990047	清浄	-0.09404617
-4.1869555	www6	-0.09404617
-4.1869555	ocn	-0.09404617
-4.1869555	~jozan	-0.09404617
-4.1869555	佛教	-0.09404617
-3.990047	大学	-0.2205844
-4.1869555	学園	-0.09404617
-3.6189215	名古屋	-0.19709072
-4.1869555	三好	-0.09404617
-3.8795545	学校	-0.09404613
-3.729973	高等	-0.40743315
-4.1869555	母体	-0.09404617
-3.990047	芝	-0.09404617
-3.8795545	旧	-0.09404617
-3.6189215	支校	-0.50434315
-4.1869555	姉妹	-0.09404617
-4.1869555	校	-0.09404617
-4.1869555	上宮	-0.09404617
-3.729973	大阪	-0.14033619
-4.1869555	熊本	-0.09404617
-3.729973	九州	-0.09404617
-2.977007	真言	-0.46491492
-4.1869555	しんごん	-0.09404617
-3.5305624	しゅう	-0.27627197
-3.3395927	空海	-0.18981545
-3.8795545	弘法	-0.2824944
-3.3944173	世紀	-0.14579779
-4.1869555	初頭	-0.09404617
-3.5305624	陀羅尼	-0.1265994
-4.1869555	しんご	-0.09404617
-3.6189215	だら	-0.19709072
-3.5305624	曼荼羅	-0.1265994
-4.1869555	だらしゅ	-0.09404617
-4.1869555	秘密宗	-0.09404617
-3.990047	ひみつ	-0.09404617
-3.729973	称	-0.20367453
-3.990047	同	-0.09404617
-3.8795545	時期	-0.2824944
-3.3944173	最澄	-0.22256772
-3.024177	天台	-0.4306386
-2.9146566	法華	-0.39996916
-4.1869555	経学	-0.09404617
-3.024177	密教	-0.31595406
-3.6189215	戒律	-0.09404613
-4.1869555	兼修	-0.09404617
-4.1869555	最終	-0.09404617
-3.8795545	顕教	-0.09404617
-4.1869555	比べ	-0.09404617
-4.1869555	優位	-0.09404617
-4.1869555	摂包	-0.09404617
-3.8795545	台密	-0.09404617
-4.1869555	密	-0.09404617
-3.3395927	東寺	-0.17017575
-4.1869555	基盤	-0.09404617
-3.729973	入定	-0.09404617
-3.6189215	住持	-0.14033619
-4.1869555	付嘱	-0.09404617
-3.729973	長者	-0.09404613
-4.1869555	統括	-0.09404617
-3.1061976	金剛	-0.26500544
-4.1869555	峯	-0.09404617
-4.1869555	本末	-0.09404617
-3.8795545	争い	-0.09404617
-4.1869555	負け	-0.09404617
-4.1869555	落雷	-0.09404617
-3.990047	伽藍	-0.09404617
-4.1869555	諸堂	-0.09404617
-3.990047	焼失	-0.2205844
-4.1869555	国司	-0.09404617
-4.1869555	押妨	-0.09404617
-3.3395927	高野	-0.5793662
-4.1869555	衰微	-0.09404617
-4.1869555	無人	-0.09404617
-3.2074015	まで	-0.14033619
-3.990047	皇族	-0.09404617
-4.1869555	摂関	-0.09404617
-4.1869555	公家	-0.09404617
-3.990047	経済	-0.2205844
-3.990047	支援	-0.09404617
-3.990047	財政	-0.09404617
-4.1869555	安定	-0.09404617
-3.729973	覚鑁	-0.14033619
-4.1869555	かくばん	-0.09404617
-4.1869555	師資	-0.09404617
-3.990047	相承	-0.09404617
-3.6189215	重視	-0.1781281
-3.6189215	分派	-0.09404617
-3.4571767	事相	-0.20974766
-3.8795545	実践	-0.09404617
-4.1869555	作法	-0.09404617
-3.729973	修法	-0.14033619
-3.6189215	教学	-0.1741864
-4.1869555	大成	-0.09404617
-3.990047	半ば	-0.09404617
-4.1869555	宗内	-0.09404617
-3.8795545	論争	-0.09404617
-3.990047	あまり	-0.09404617
-4.1869555	興教	-0.09404617
-3.8795545	秘密	-0.09404617
-3.990047	提唱	-0.09404617
-3.990047	伝法	-0.2205844
-4.1869555	振興	-0.09404617
-4.1869555	伝法会	-0.09404617
-3.990047	復興	-0.09404617
-4.1869555	座主	-0.09404617
-4.1869555	辞	-0.09404617
-4.1869555	根来山	-0.09404617
-3.990047	和歌山	-0.09404617
-4.1869555	隠棲	-0.09404617
-4.1869555	本寺	-0.09404617
-4.1869555	確執	-0.09404617
-4.1869555	両派	-0.09404617
-3.6189215	古義	-0.1781281
-3.8795545	新義	-0.09404617
-3.8795545	新義真言	-0.2824944
-4.1869555	1588	-0.09404617
-3.8795545	天正	-0.09404617
-4.1869555	専誉	-0.09404617
-3.729973	長谷	-0.40743315
-4.1869555	豊山	-0.09404617
-3.729973	界	-0.15847215
-3.990047	新た	-0.2205844
-4.1869555	統制	-0.09404617
-3.990047	1604	-0.09404617
-3.990047	慶長	-0.09404617
-3.1709828	14	-0.19650468
-3.5305624	醍醐	-0.1781281
-4.1869555	侶	-0.09404617
-4.1869555	監視	-0.09404617
-3.6189215	置	-0.29191956
-4.1869555	維新	-0.09404617
-3.1373835	以降	-0.40113306
-3.8795545	政府	-0.1527229
-3.8795545	神仏	-0.1741864
-4.1869555	分離	-0.09404617
-3.990047	推進	-0.2205844
-4.1869555	伴	-0.09404617
-3.990047	廃仏	-0.2205844
-4.1869555	棄釈	-0.09404617
-4.1869555	起	-0.09404617
-3.729973	末寺	-0.09404617
-3.990047	かかわ	-0.2205844
-3.6189215	大きな	-0.11915158
-4.1869555	打撃	-0.09404617
-4.1869555	命令	-0.09404617
-4.1869555	寺領	-0.09404617
-3.990047	返納	-0.09404617
-4.1869555	要求	-0.09404617
-4.1869555	強制	-0.09404617
-4.1869555	没収	-0.09404617
-4.1869555	特権	-0.09404617
-4.1869555	廃	-0.09404617
-3.990047	勅願	-0.09404617
-3.1061976	門跡	-0.26488945
-4.1869555	称号	-0.09404617
-3.729973	禁止	-0.1527229
-3.5305624	多く	-0.5835244
-4.1869555	経営	-0.09404617
-4.1869555	立ち行	-0.09404617
-4.1869555	廃寺	-0.09404617
-4.1869555	追い込	-0.09404617
-3.990047	離れ	-0.1741864
-4.1869555	還俗	-0.09404617
-3.729973	現れ	-0.25666207
-4.1869555	敬慕	-0.09404617
-3.8795545	厚	-0.2824944
-3.8795545	各派	-0.09404617
-3.6189215	延暦	-0.3240937
-3.729973	23	-0.1527229
-4.1869555	804	-0.09404617
-4.1869555	遣唐	-0.09404617
-4.1869555	同乗	-0.09404617
-3.8795545	長安	-0.1527229
-3.990047	青龍	-0.09404617
-3.8795545	恵果	-0.1741864
-4.1869555	奥義	-0.09404617
-4.1869555	授か	-0.09404617
-3.6189215	仏典	-0.14579779
-4.1869555	仏具	-0.09404617
-4.1869555	仏画	-0.09404617
-3.990047	請来	-0.09404617
-4.1869555	835	-0.09404617
-3.990047	承和	-0.2205844
-4.1869555	才	-0.09404617
-4.1869555	にゅう	-0.09404617
-4.1869555	86	-0.09404617
-4.1869555	延喜	-0.09404617
-4.1869555	921	-0.09404617
-4.1869555	諡号	-0.09404617
-3.990047	贈	-0.2205844
-4.1869555	っそ	-0.09404617
-3.729973	祀	-0.22718367
-4.1869555	正系	-0.09404617
-3.2074015	大日	-0.5282137
-3.729973	説法	-0.16179194
-4.1869555	薩埵	-0.09404617
-3.8795545	教法	-0.09404617
-3.729973	系譜	-0.14033619
-4.1869555	だいにち	-0.09404617
-3.3395927	にょらい	-0.39997682
-3.990047	龍猛	-0.09404617
-4.1869555	みょうぼ	-0.09404617
-3.4571767	さつ	-0.21020864
-3.990047	龍智	-0.09404617
-4.1869555	りゅうち	-0.09404617
-3.3944173	ぼ	-0.30306682
-3.729973	智	-0.09404613
-3.3944173	三蔵	-0.24986538
-4.1869555	こんご	-0.09404617
-3.990047	ぞう	-0.1741864
-3.729973	不空	-0.19709072
-4.1869555	ふく	-0.09404617
-4.1869555	うさん	-0.09404617
-3.990047	けい	-0.09404617
-4.1869555	じゃり	-0.09404617
-3.990047	関わ	-0.2205844
-4.1869555	祖師	-0.09404617
-3.729973	内	-0.14033619
-4.1869555	加え	-0.09404617
-4.1869555	八祖	-0.09404617
-4.1869555	はっそだいし	-0.09404617
-4.1869555	一人一人	-0.09404617
-3.990047	持ち物	-0.09404617
-4.1869555	本質	-0.09404617
-4.1869555	直弟子	-0.09404617
-3.990047	薩	-0.09404617
-4.1869555	埵	-0.09404617
-4.1869555	三鈷	-0.09404617
-3.8795545	杵	-0.1741864
-4.1869555	さんこしょ	-0.09404617
-3.5305624	右手	-0.30403674
-3.990047	経文	-0.09404617
-4.1869555	のち	-0.09404617
-3.990047	頂	-0.09404617
-3.990047	数珠	-0.09404617
-3.990047	西域	-0.09404617
-4.1869555	貿易	-0.09404617
-4.1869555	商	-0.09404617
-4.1869555	連れ	-0.09404617
-3.990047	漢語	-0.09404617
-3.729973	翻訳	-0.1527229
-3.6189215	灌頂	-0.14033619
-3.990047	外	-0.09404617
-4.1869555	縛	-0.09404617
-3.5305624	印	-0.27627197
-4.1869555	げばく	-0.09404617
-4.1869555	結	-0.09404617
-3.729973	善	-0.1781281
-3.990047	畏	-0.09404617
-4.1869555	ぜんむ	-0.09404617
-3.990047	さらに	-0.09404617
-3.990047	受け継	-0.09404617
-3.729973	ぐ	-0.09404617
-3.990047	大日経	-0.09404617
-4.1869555	人さし	-0.09404617
-4.1869555	たて	-0.09404617
-4.1869555	一行	-0.09404617
-3.729973	禅師	-0.1527229
-3.990047	いち	-0.09404617
-3.729973	ぎょう	-0.09404617
-4.1869555	天文学	-0.09404617
-4.1869555	数学	-0.09404617
-4.1869555	口述	-0.09404617
-3.990047	もと	-0.09404617
-4.1869555	きょうしょ	-0.09404617
-3.8795545	完成	-0.20367453
-4.1869555	法衣	-0.09404617
-3.8795545	胎蔵	-0.22718367
-4.1869555	両部	-0.09404617
-4.1869555	椅子	-0.09404617
-3.990047	座	-0.09404617
-3.990047	横	-0.09404617
-3.990047	童	-0.09404617
-4.1869555	待	-0.09404617
-4.1869555	授け	-0.09404617
-4.1869555	五鈷	-0.09404617
-4.1869555	ごこしょ	-0.09404617
-3.990047	左手	-0.1741864
-4.1869555	念珠	-0.09404617
-4.1869555	即身	-0.09404617
-3.3944173	成仏	-0.1741864
-4.1869555	密厳	-0.09404617
-4.1869555	国土	-0.09404617
-4.1869555	宇宙	-0.09404617
-4.1869555	本体	-0.09404617
-4.1869555	絶対	-0.09404617
-3.990047	真理	-0.09404617
-3.990047	うえ	-0.09404617
-4.1869555	じそう	-0.09404617
-3.6189215	教相	-0.29191956
-4.1869555	きょうそう	-0.09404617
-4.1869555	対語	-0.09404617
-4.1869555	方法	-0.09404617
-3.990047	主要	-0.09404617
-3.8795545	理論	-0.1527229
-3.8795545	理解	-0.09404617
-4.1869555	裏付け	-0.09404617
-3.4571767	意味	-0.15459421
-3.990047	動作	-0.09404617
-4.1869555	しま	-0.09404617
-4.1869555	両方	-0.09404617
-4.1869555	けれ	-0.09404617
-4.1869555	理想	-0.09404617
-4.1869555	習得	-0.09404617
-4.1869555	たとえ	-0.09404617
-3.990047	車	-0.09404617
-4.1869555	両輪	-0.09404617
-4.1869555	置き換え	-0.09404617
-3.729973	中期	-0.14033619
-3.5305624	盛ん	-0.2500315
-3.990047	益信	-0.09404617
-4.1869555	やくしん	-0.09404617
-3.5305624	広沢	-0.22306496
-4.1869555	ひろさわりゅう	-0.09404617
-3.8795545	聖宝	-0.1527229
-3.729973	ほう	-0.13227034
-4.1869555	おのりゅう	-0.09404617
-3.729973	それぞれ	-0.13227034
-3.2074015	六	-0.19796504
-3.8795545	野沢	-0.22718367
-4.1869555	たく	-0.09404617
-3.8795545	やがて	-0.09404613
-3.2074015	三十	-0.5835244
-3.8795545	法流	-0.09404617
-3.8795545	あわせ	-0.1741864
-3.8795545	100	-0.09404617
-4.1869555	余り	-0.09404617
-3.990047	数え	-0.09404617
-3.990047	流派	-0.09404617
-4.1869555	二流	-0.09404617
-4.1869555	始祖	-0.09404617
-4.1869555	くじゅう	-0.09404617
-4.1869555	定義	-0.09404617
-4.1869555	持明	-0.09404617
-4.1869555	入れ	-0.09404617
-4.1869555	中院	-0.09404617
-3.8795545	いずれ	-0.09404617
-3.990047	儀軌	-0.09404617
-4.1869555	重んじ	-0.09404617
-3.990047	寛朝	-0.09404617
-3.990047	建立	-0.09404617
-4.1869555	右京	-0.09404617
-4.1869555	嵯峨	-0.09404617
-3.990047	池	-0.09404617
-3.990047	遍照	-0.09404617
-4.1869555	所在	-0.09404617
-3.8795545	語源	-0.09404613
-3.990047	広義	-0.09404617
-4.1869555	分	-0.09404617
-3.990047	狭義	-0.09404617
-4.1869555	三流	-0.09404617
-3.1061976	系	-0.31237888
-3.990047	派祖	-0.09404617
-4.1869555	覚法	-0.09404617
-4.1869555	雅	-0.09404617
-3.990047	源	-0.09404617
-3.990047	仁	-0.09404617
-4.1869555	益	-0.09404617
-3.6189215	信	-0.09404617
-4.1869555	寛平	-0.09404617
-4.1869555	法皇	-0.09404617
-3.990047	宇多	-0.2205844
-4.1869555	済信	-0.09404617
-4.1869555	性信	-0.09404617
-4.1869555	寛助	-0.09404617
-4.1869555	西院	-0.09404617
-4.1869555	保寿	-0.09404617
-3.8795545	流略	-0.2824944
-4.1869555	永厳	-0.09404617
-4.1869555	寛	-0.09404617
-4.1869555	助	-0.09404617
-4.1869555	永	-0.09404617
-3.990047	厳	-0.09404617
-4.1869555	華蔵	-0.09404617
-3.990047	聖恵	-0.09404617
-4.1869555	忍辱	-0.09404617
-3.990047	寛遍	-0.09404617
-3.8795545	口伝	-0.09404617
-4.1869555	口訣	-0.09404617
-4.1869555	重じ	-0.09404617
-4.1869555	善通寺	-0.09404617
-3.6189215	大本山	-0.1781281
-3.729973	随	-0.22718367
-4.1869555	旧称	-0.09404617
-3.5305624	山科	-0.1781281
-4.1869555	元祖	-0.09404617
-4.1869555	開創	-0.09404617
-4.1869555	仁海	-0.09404617
-4.1869555	流祖	-0.09404617
-3.990047	単に	-0.09404617
-3.990047	随心	-0.1741864
-4.1869555	安祥	-0.09404617
-3.990047	宗意	-0.09404617
-4.1869555	源仁	-0.09404617
-4.1869555	観賢	-0.09404617
-3.8795545	海	-0.09404617
-3.990047	成	-0.09404617
-4.1869555	範	-0.09404617
-4.1869555	俊	-0.09404617
-4.1869555	厳覚	-0.09404617
-4.1869555	勧修	-0.09404617
-3.990047	寛信	-0.09404617
-3.990047	増俊	-0.09404617
-3.729973	三宝	-0.14033619
-4.1869555	定海	-0.09404617
-4.1869555	義範	-0.09404617
-3.6189215	勝	-0.09404613
-4.1869555	定	-0.09404617
-3.990047	理性	-0.2205844
-3.990047	賢覚	-0.09404617
-4.1869555	王院	-0.09404617
-3.990047	聖賢	-0.09404617
-4.1869555	別れ	-0.09404617
-3.990047	多種	-0.09404617
-3.990047	多様	-0.09404617
-3.729973	展開	-0.19709072
-3.990047	本地	-0.09404617
-3.8795545	法身	-0.09404617
-3.990047	現実	-0.09404617
-4.1869555	一事	-0.09404617
-4.1869555	一物	-0.09404617
-3.990047	身体	-0.09404617
-4.1869555	みな	-0.09404617
-3.8795545	加持	-0.1741864
-2.8433948	身	-0.60545325
-3.729973	昭和	-0.09404613
-4.1869555	1939	-0.09404617
-3.990047	団体	-0.09404617
-3.6189215	成立	-0.14033619
-3.729973	律宗	-0.12239434
-3.990047	統合	-0.09404617
-3.990047	戦後	-0.09404617
-3.8795545	独立	-0.09404617
-3.8795545	継	-0.1741864
-3.729973	50	-0.09404617
-3.5305624	各	-0.09404617
-3.990047	事務	-0.2205844
-4.1869555	局	-0.09404617
-3.990047	智積	-0.09404617
-4.1869555	院内	-0.09404617
-4.1869555	善通	-0.09404617
-3.729973	御室	-0.1527229
-3.8795545	大覚	-0.2824944
-3.990047	泉涌	-0.2205844
-4.1869555	山階	-0.09404617
-4.1869555	朝護	-0.09404617
-4.1869555	孫子	-0.09404617
-4.1869555	信貴山	-0.09404617
-3.990047	中山寺	-0.09404617
-4.1869555	宝塚	-0.09404617
-3.990047	清	-0.09404617
-3.990047	荒神	-0.09404617
-4.1869555	清澄	-0.09404617
-3.990047	須磨	-0.2205844
-4.1869555	智山	-0.09404617
-4.1869555	根来	-0.09404617
-4.1869555	大寺	-0.09404617
-4.1869555	奈良市	-0.09404617
-4.1869555	宝山	-0.09404617
-3.729973	構成	-0.09404617
-4.1869555	会所属	-0.09404617
-3.990047	選出	-0.2205844
-3.990047	大阿闍梨	-0.09404617
-3.990047	管長	-0.09404617
-4.1869555	山主	-0.09404617
-4.1869555	手替	-0.09404617
-3.8795545	供	-0.2824944
-4.1869555	神供	-0.09404617
-4.1869555	伴僧	-0.09404617
-4.1869555	増益	-0.09404617
-3.990047	護摩	-0.2205844
-4.1869555	咒頭	-0.09404617
-3.990047	舎利	-0.09404617
-3.990047	守	-0.09404617
-4.1869555	息災	-0.09404617
-4.1869555	聖天	-0.09404617
-3.729973	五大	-0.3240937
-4.1869555	尊供	-0.09404617
-4.1869555	定額	-0.09404617
-4.1869555	承仕	-0.09404617
-4.1869555	徒弟子	-0.09404617
-4.1869555	別当	-0.09404617
-3.6189215	行事	-0.19709072
-4.1869555	用度	-0.09404617
-4.1869555	局長	-0.09404617
-3.8795545	いん	-0.09404617
-3.990047	みしほ	-0.2205844
-4.1869555	1871	-0.09404617
-3.6189215	影響	-0.16507299
-4.1869555	廃止	-0.09404617
-4.1869555	釈	-0.09404617
-3.8795545	照ら	-0.1741864
-4.1869555	嘆願	-0.09404617
-4.1869555	1883	-0.09404617
-3.990047	復活	-0.09404617
-3.5305624	とき	-0.16507299
-4.1869555	宮中	-0.09404617
-4.1869555	合計	-0.09404617
-4.1869555	ヶ座	-0.09404617
-4.1869555	中日	-0.09404617
-3.990047	結願	-0.09404617
-3.990047	勅使	-0.09404617
-4.1869555	焼香	-0.09404617
-4.1869555	同日	-0.09404617
-4.1869555	御衣	-0.09404617
-4.1869555	奉還	-0.09404617
-4.1869555	儀式	-0.09404617
-4.1869555	成満	-0.09404617
-4.1869555	とうじ	-0.09404617
-3.990047	ちょうじゃ	-0.09404617
-4.1869555	務め	-0.09404617
-4.1869555	任期	-0.09404617
-3.8795545	就任	-0.09404617
-3.990047	慣習	-0.09404617
-3.8795545	限	-0.09404617
-3.8795545	永平寺	-0.09404613
-4.1869555	總	-0.09404617
-3.8795545	横浜	-0.2824944
-4.1869555	鶴見	-0.09404617
-3.4571767	曹洞	-0.6504712
-3.5305624	道元	-0.18835945
-3.8795545	南宋	-0.09404617
-3.990047	天童	-0.09404617
-4.1869555	如浄	-0.09404617
-4.1869555	1226	-0.09404617
-3.8795545	帰国	-0.1741864
-3.6189215	自身	-0.09404613
-4.1869555	正伝	-0.09404617
-3.990047	仏法	-0.09404617
-4.1869555	セクショナリズム	-0.09404617
-3.990047	特定	-0.2205844
-3.6189215	禅宗	-0.14033619
-4.1869555	一派	-0.09404617
-4.1869555	拒否	-0.09404617
-3.8795545	感	-0.09404617
-3.729973	どう	-0.09404617
-4.1869555	仏心	-0.09404617
-3.990047	呼称	-0.09404613
-3.6189215	用い	-0.20367453
-3.8795545	瑩山	-0.1741864
-4.1869555	紹瑾	-0.09404617
-4.1869555	後席	-0.09404617
-4.1869555	峨山	-0.09404617
-4.1869555	韶碩	-0.09404617
-4.1869555	スローガン	-0.09404617
-4.1869555	人権	-0.09404617
-4.1869555	平和	-0.09404617
-4.1869555	環境	-0.09404617
-3.8795545	主に	-0.09404617
-3.1373835	般若	-0.47463068
-3.729973	心経	-0.11657469
-3.5305624	妙法	-0.46078205
-3.5305624	蓮華	-0.09404619
-3.3944173	観世音	-0.5282137
-3.8795545	普門	-0.1741864
-4.1869555	寿量	-0.09404617
-3.729973	大悲	-0.1527229
-4.1869555	甘露	-0.09404617
-4.1869555	参	-0.09404617
-4.1869555	契	-0.09404617
-4.1869555	宝鏡	-0.09404617
-3.5305624	三昧	-0.1265994
-4.1869555	礼文	-0.09404617
-3.729973	基本	-0.19215524
-4.1869555	祖録	-0.09404617
-4.1869555	正法	-0.09404617
-4.1869555	眼蔵	-0.09404617
-4.1869555	著述	-0.09404617
-4.1869555	未完	-0.09404617
-3.729973	編集	-0.09404617
-4.1869555	伝光	-0.09404617
-3.8795545	録	-0.1741864
-4.1869555	側近	-0.09404617
-3.8795545	まとめ	-0.1741864
-4.1869555	修証義	-0.09404617
-4.1869555	文言	-0.09404617
-4.1869555	抽出	-0.09404617
-3.8795545	信者	-0.1741864
-3.990047	用	-0.09404617
-4.1869555	再編	-0.09404617
-4.1869555	梅花	-0.09404617
-4.1869555	流詠	-0.09404617
-4.1869555	讃歌	-0.09404617
-4.1869555	まごころ	-0.09404617
-3.6189215	こう	-0.09404613
-3.990047	せつ	-0.09404617
-4.1869555	作詞	-0.09404617
-4.1869555	作曲	-0.09404617
-3.8795545	両	-0.09404617
-3.8795545	貫首	-0.09404617
-4.1869555	交代	-0.09404617
-3.8795545	宗門	-0.1527229
-4.1869555	福山	-0.09404617
-4.1869555	諦	-0.09404617
-4.1869555	寛元	-0.09404617
-4.1869555	1244	-0.09404617
-3.8795545	越前	-0.1741864
-4.1869555	波多野	-0.09404617
-4.1869555	義重	-0.09404617
-4.1869555	要請	-0.09404617
-4.1869555	港	-0.09404617
-4.1869555	永平	-0.09404617
-4.1869555	代官	-0.09404617
-3.8795545	鹿児島	-0.1741864
-4.1869555	紹隆	-0.09404617
-4.1869555	姶良	-0.09404617
-3.3944173	郡	-0.09404617
-4.1869555	松原	-0.09404617
-4.1869555	總持	-0.09404617
-3.990047	大道	-0.09404617
-4.1869555	晃仙	-0.09404617
-3.990047	元亨	-0.2205844
-4.1869555	1321	-0.09404617
-4.1869555	能登	-0.09404617
-4.1869555	定賢	-0.09404617
-4.1869555	律師	-0.09404617
-3.729973	石川	-0.40743315
-4.1869555	輪島	-0.09404617
-4.1869555	前町	-0.09404617
-3.729973	31	-0.09404617
-4.1869555	1898	-0.09404617
-4.1869555	火災	-0.09404617
-4.1869555	44	-0.09404617
-4.1869555	1911	-0.09404617
-3.8795545	移転	-0.09404617
-4.1869555	38	-0.09404617
-4.1869555	1905	-0.09404617
-4.1869555	法源	-0.09404617
-3.729973	北海道	-0.09404617
-4.1869555	松前	-0.09404617
-4.1869555	松前町	-0.09404617
-3.8795545	城	-0.09404617
-4.1869555	享和	-0.09404617
-4.1869555	1802	-0.09404617
-4.1869555	1884	-0.09404617
-3.8795545	26	-0.09404617
-4.1869555	1951	-0.09404617
-4.1869555	施行	-0.09404617
-4.1869555	教会	-0.09404617
-3.2074015	教団	-0.31164172
-3.5305624	上記	-0.20668545
-4.1869555	金沢	-0.09404617
-3.729973	救世	-0.09404617
-3.729973	19	-0.1527229
-4.1869555	1886	-0.09404617
-4.1869555	離脱	-0.09404617
-3.990047	結成	-0.2205844
-3.990047	法王	-0.1741864
-3.5305624	後期	-0.13227034
-3.729973	大正	-0.09404617
-3.6189215	高田	-0.14033619
-4.1869555	“	-0.09404617
-4.1869555	通俗	-0.09404617
-4.1869555	”	-0.09404617
-3.729973	大聖	-0.09404617
-4.1869555	牟尼	-0.09404617
-4.1869555	本旨	-0.09404617
-4.1869555	基づ	-0.09404617
-4.1869555	冠	-0.09404617
-3.990047	1923	-0.09404617
-3.990047	入寂	-0.09404617
-4.1869555	教派	-0.09404617
-4.1869555	終息	-0.09404617
-4.1869555	1954	-0.09404617
-4.1869555	安谷	-0.09404617
-4.1869555	白雲	-0.09404617
-3.729973	神奈川	-0.22718367
-4.1869555	中核	-0.09404617
-4.1869555	公案	-0.09404617
-3.990047	取り入れ	-0.09404617
-3.990047	構築	-0.09404617
-3.8795545	在家	-0.1741864
-4.1869555	坐禅	-0.09404617
-4.1869555	指導	-0.09404617
-3.990047	海外	-0.09404617
-4.1869555	参禅	-0.09404617
-3.5305624	他	-0.21207684
-4.1869555	単立	-0.09404617
-4.1869555	少数	-0.09404617
-3.729973	自在	-0.09404613
-4.1869555	くせぼ	-0.09404617
-4.1869555	ぐせぼ	-0.09404617
-3.990047	別名	-0.09404617
-3.6189215	名称	-0.09404613
-3.6189215	玄奘	-0.20367453
-3.1709828	訳	-0.17080653
-3.990047	採用	-0.2205844
-3.990047	鳩摩羅什	-0.09404617
-4.1869555	くまらじゅう	-0.09404617
-4.1869555	旧訳	-0.09404617
-3.990047	大陸	-0.09404617
-4.1869555	趣意	-0.09404617
-3.8795545	意訳	-0.1741864
-4.1869555	新訳	-0.09404617
-4.1869555	観照	-0.09404617
-4.1869555	妙果	-0.09404617
-3.3395927	衆生	-0.23848344
-4.1869555	総て	-0.09404617
-4.1869555	畏れ	-0.09404617
-3.990047	ざる	-0.09404617
-3.8795545	施	-0.09404617
-3.990047	意	-0.1741864
-3.990047	救済	-0.09404617
-3.990047	大士	-0.09404617
-4.1869555	位置	-0.09404617
-4.1869555	づけ	-0.09404617
-3.3944173	広	-0.40121073
-4.1869555	礼拝	-0.09404617
-3.8795545	対象	-0.1781281
-3.990047	冒頭	-0.09404617
-3.729973	登場	-0.22718367
-3.729973	象徴	-0.09404617
-3.729973	ところ	-0.14033619
-4.1869555	大慈	-0.09404617
-3.990047	飛鳥	-0.1741864
-3.4571767	造像	-0.19461596
-3.990047	例	-0.1741864
-3.5305624	現世	-0.15553294
-3.729973	利益	-0.09404617
-4.1869555	結びつけ	-0.09404617
-3.6189215	地域	-0.14033619
-4.1869555	問	-0.09404617
-3.990047	持物	-0.09404617
-4.1869555	いびょう	-0.09404617
-3.3944173	功徳	-0.18835945
-4.1869555	いくら	-0.09404617
-4.1869555	なくな	-0.09404617
-4.1869555	慈母	-0.09404617
-3.990047	言葉	-0.09404617
-4.1869555	俗	-0.09404617
-3.077102	女性	-0.24106242
-4.1869555	向き	-0.09404617
-4.1869555	後代	-0.09404617
-4.1869555	機根	-0.09404617
-3.990047	性格	-0.09404617
-4.1869555	聞け	-0.09404617
-4.1869555	器	-0.09404617
-4.1869555	応	-0.09404617
-3.990047	種々	-0.09404617
-4.1869555	形体	-0.09404617
-4.1869555	現じ	-0.09404617
-4.1869555	示現	-0.09404617
-4.1869555	じげん	-0.09404617
-4.1869555	西国	-0.09404617
-3.8795545	箇所	-0.09404617
-3.729973	33	-0.09404617
-4.1869555	数字	-0.09404617
-3.729973	別	-0.14033619
-3.729973	派生	-0.09404617
-3.3944173	聖	-0.18835945
-3.8795545	かん	-0.1741864
-4.1869555	のん	-0.09404617
-3.990047	変化	-0.09404617
-4.1869555	へんげ	-0.09404617
-3.990047	さまざま	-0.2205844
-3.8795545	異な	-0.1527229
-3.8795545	独尊	-0.09404617
-3.8795545	あらゆる	-0.09404617
-3.8795545	救	-0.1527229
-3.990047	人々	-0.2205844
-4.1869555	かなえ	-0.09404617
-3.990047	観点	-0.2205844
-3.990047	多面	-0.09404617
-4.1869555	多臂	-0.09404617
-4.1869555	超	-0.09404617
-4.1869555	人間	-0.09404617
-3.2471561	姿	-0.31462252
-3.990047	種類	-0.09404617
-3.990047	仏身	-0.2205844
-4.1869555	ぶっしん	-0.09404617
-4.1869555	梵	-0.09404617
-4.1869555	王身	-0.09404617
-4.1869555	だいぼん	-0.09404617
-3.990047	おうしん	-0.2205844
-4.1869555	自在天	-0.09404617
-4.1869555	だいじざい	-0.09404617
-3.5305624	てん	-0.1527229
-3.2909198	王	-0.16778697
-4.1869555	宰	-0.09404617
-3.990047	官	-0.09404617
-4.1869555	かんしん	-0.09404617
-3.4571767	比丘尼	-0.1265994
-3.990047	びく	-0.09404617
-4.1869555	にしん	-0.09404617
-3.990047	人身	-0.2205844
-4.1869555	じんしん	-0.09404617
-3.729973	目	-0.1527229
-4.1869555	天女身	-0.09404617
-4.1869555	どうもく	-0.09404617
-4.1869555	ょしん	-0.09404617
-4.1869555	てんしん	-0.09404617
-4.1869555	乾闥婆	-0.09404617
-4.1869555	つば	-0.09404617
-4.1869555	緊那羅	-0.09404617
-4.1869555	きんならしん	-0.09404617
-3.990047	辟支	-0.09404617
-4.1869555	びゃ	-0.09404617
-3.990047	ぶつ	-0.09404617
-3.729973	帝釈	-0.22718367
-4.1869555	たいしゃくし	-0.09404617
-4.1869555	大将軍	-0.09404617
-4.1869555	だいしょう	-0.09404617
-4.1869555	ぐん	-0.09404617
-4.1869555	ちょうじゃしん	-0.09404617
-4.1869555	婆羅門	-0.09404617
-3.990047	ばら	-0.09404617
-4.1869555	優婆塞	-0.09404617
-4.1869555	うば	-0.09404617
-4.1869555	そくしん	-0.09404617
-4.1869555	非	-0.09404617
-4.1869555	ひじん	-0.09404617
-4.1869555	男身	-0.09404617
-4.1869555	龍身	-0.09404617
-3.8795545	阿修羅	-0.09404617
-4.1869555	あしゅ	-0.09404617
-4.1869555	らしん	-0.09404617
-3.8795545	32	-0.1527229
-4.1869555	摩	-0.09404617
-4.1869555	睺	-0.09404617
-3.5305624	羅	-0.09404617
-3.3944173	迦	-0.19401261
-4.1869555	まごら	-0.09404617
-4.1869555	かしん	-0.09404617
-3.8795545	声聞	-0.09404617
-3.990047	じざい	-0.09404617
-3.990047	びしゃもん	-0.09404617
-3.990047	居士	-0.09404617
-4.1869555	こじしん	-0.09404617
-3.990047	比丘	-0.09404617
-3.990047	優	-0.09404617
-3.990047	婆	-0.09404617
-4.1869555	夷	-0.09404617
-4.1869555	うばいしん	-0.09404617
-4.1869555	婦女身	-0.09404617
-4.1869555	ふじょし	-0.09404617
-4.1869555	童女身	-0.09404617
-3.729973	夜叉	-0.09404613
-4.1869555	しゃしん	-0.09404617
-3.8795545	30	-0.09404617
-4.1869555	迦樓	-0.09404617
-4.1869555	羅身	-0.09404617
-4.1869555	かる	-0.09404617
-3.990047	執	-0.09404617
-4.1869555	金剛身	-0.09404617
-4.1869555	しゅうこん	-0.09404617
-4.1869555	ごうしん	-0.09404617
-3.729973	最後	-0.25666207
-3.729973	読誦	-0.14033619
-4.1869555	変じ	-0.09404617
-4.1869555	給え	-0.09404617
-3.990047	羂索	-0.09404617
-3.990047	楊柳	-0.2205844
-4.1869555	ようりゅう	-0.09404617
-4.1869555	円光	-0.09404617
-4.1869555	えんこう	-0.09404617
-4.1869555	蓮臥	-0.09404617
-4.1869555	れんが	-0.09404617
-4.1869555	魚籃	-0.09404617
-4.1869555	ぎょらん	-0.09404617
-4.1869555	一葉	-0.09404617
-4.1869555	いちよう	-0.09404617
-4.1869555	延命	-0.09404617
-4.1869555	えんめい	-0.09404617
-3.8795545	能	-0.09404617
-4.1869555	静	-0.09404617
-4.1869555	のう	-0.09404617
-4.1869555	葉衣	-0.09404617
-4.1869555	ようえ	-0.09404617
-4.1869555	蛤蜊	-0.09404617
-4.1869555	こうり	-0.09404617
-4.1869555	はまぐり	-0.09404617
-4.1869555	馬郎	-0.09404617
-4.1869555	婦	-0.09404617
-4.1869555	めろう	-0.09404617
-4.1869555	不二	-0.09404617
-4.1869555	ふに	-0.09404617
-4.1869555	龍頭	-0.09404617
-3.990047	遊戯	-0.09404617
-3.990047	ゆげ	-0.09404617
-4.1869555	滝	-0.09404617
-4.1869555	たきみ	-0.09404617
-4.1869555	徳王	-0.09404617
-4.1869555	とくおう	-0.09404617
-4.1869555	青頚	-0.09404617
-4.1869555	衆宝	-0.09404617
-4.1869555	阿耨	-0.09404617
-4.1869555	あの	-0.09404617
-3.8795545	瑠璃	-0.1741864
-4.1869555	るり	-0.09404617
-4.1869555	ろくじ	-0.09404617
-4.1869555	合掌	-0.09404617
-4.1869555	がっ	-0.09404617
-3.8795545	蓮	-0.09404617
-4.1869555	じれん	-0.09404617
-4.1869555	持経	-0.09404617
-4.1869555	じきょう	-0.09404617
-3.990047	白衣	-0.2205844
-4.1869555	びゃくえ	-0.09404617
-4.1869555	施薬	-0.09404617
-4.1869555	せやく	-0.09404617
-4.1869555	水月	-0.09404617
-4.1869555	すいげつ	-0.09404617
-4.1869555	威徳	-0.09404617
-4.1869555	いと	-0.09404617
-4.1869555	岩戸	-0.09404617
-4.1869555	いわ	-0.09404617
-4.1869555	阿摩	-0.09404617
-4.1869555	提	-0.09404617
-4.1869555	あまだい	-0.09404617
-3.8795545	多羅	-0.09404617
-4.1869555	たらそん	-0.09404617
-4.1869555	普	-0.09404617
-4.1869555	悲観音	-0.09404617
-4.1869555	ふひ	-0.09404617
-3.990047	一如	-0.09404617
-4.1869555	にょ	-0.09404617
-4.1869555	灑水	-0.09404617
-4.1869555	しゃすい	-0.09404617
-4.1869555	栃木	-0.09404617
-3.729973	輪	-0.22718367
-4.1869555	王寺	-0.09404617
-4.1869555	立木	-0.09404617
-3.2471561	―	-0.29613513
-3.990047	千手	-0.2205844
-3.729973	立像	-0.1527229
-3.990047	財	-0.09404613
-3.8795545	磨崖	-0.1741864
-4.1869555	史跡	-0.09404617
-4.1869555	寺山	-0.09404617
-3.990047	観音寺	-0.2205844
-4.1869555	浅草	-0.09404617
-4.1869555	面	-0.09404617
-4.1869555	大船	-0.09404617
-4.1869555	羽賀	-0.09404617
-3.8795545	滋賀	-0.1527229
-3.729973	石山	-0.14825512
-3.8795545	如意	-0.1741864
-4.1869555	向源	-0.09404617
-4.1869555	渡岸	-0.09404617
-4.1869555	櫟野寺	-0.09404617
-4.1869555	清水	-0.09404617
-4.1869555	本堂	-0.09404617
-4.1869555	奥	-0.09404617
-4.1869555	の院	-0.09404617
-4.1869555	湛慶	-0.09404617
-4.1869555	001	-0.09404617
-3.729973	躯	-0.09404617
-4.1869555	六波羅蜜	-0.09404617
-3.990047	興福	-0.2205844
-3.990047	薬師寺	-0.14033619
-4.1869555	招提	-0.09404617
-3.8795545	室生	-0.2824944
-4.1869555	あびこ	-0.09404617
-4.1869555	天王寺	-0.09404617
-4.1869555	観心	-0.09404617
-4.1869555	葛井	-0.09404617
-4.1869555	道明寺	-0.09404617
-4.1869555	藤井寺	-0.09404617
-4.1869555	鶴	-0.09404617
-3.990047	林寺	-0.09404617
-4.1869555	加古川	-0.09404617
-4.1869555	神呪	-0.09404617
-3.6189215	斑鳩	-0.19709072
-3.990047	東大	-0.2205844
-3.8795545	金堂	-0.09404617
-4.1869555	大安	-0.09404617
-4.1869555	馬頭	-0.09404617
-3.6189215	以上	-0.13227034
-3.8795545	全て	-0.1741864
-4.1869555	道成	-0.09404617
-4.1869555	昧	-0.09404617
-4.1869555	補陀	-0.09404617
-4.1869555	洛	-0.09404617
-3.990047	山寺	-0.09404617
-4.1869555	フィクション	-0.09404617
-3.8795545	西遊	-0.2824944
-4.1869555	ストーリー	-0.09404617
-3.990047	全般	-0.09404617
-4.1869555	わた	-0.09404617
-3.990047	法師	-0.09404613
-3.990047	回	-0.09404617
-4.1869555	携え	-0.09404617
-3.990047	西方	-0.2205844
-4.1869555	ヒント	-0.09404617
-3.990047	封神	-0.2205844
-4.1869555	演義	-0.09404617
-3.4571767	黄檗	-0.1741864
-3.729973	次	-0.1781281
-4.1869555	希	-0.09404617
-4.1869555	運	-0.09404617
-4.1869555	義	-0.09404617
-3.8795545	玄	-0.09404617
-4.1869555	変え	-0.09404617
-4.1869555	明朝	-0.09404617
-3.8795545	様式	-0.09404617
-4.1869555	隠元	-0.09404617
-3.990047	宇治	-0.09404617
-3.990047	萬福	-0.2205844
-4.1869555	ばく	-0.09404617
-4.1869555	さんまんぷくじ	-0.09404617
-4.1869555	1740	-0.09404617
-4.1869555	元文	-0.09404617
-4.1869555	晋山	-0.09404617
-2.9552135	代	-0.14937676
-4.1869555	龍統	-0.09404617
-3.990047	伝統	-0.09404617
-4.1869555	招聘	-0.09404617
-3.990047	当初	-0.2205844
-4.1869555	正統	-0.09404617
-3.8795545	正宗	-0.09404617
-4.1869555	宗風	-0.09404617
-3.990047	特色	-0.09404617
-3.8795545	華厳	-0.1741864
-3.990047	諸宗	-0.09404617
-3.8795545	いわゆる	-0.09404617
-4.1869555	混淆	-0.09404617
-4.1869555	ヵ院	-0.09404617
-4.1869555	1745	-0.09404617
-4.1869555	帳	-0.09404617
-4.1869555	1043	-0.09404617
-4.1869555	書き上げ	-0.09404617
-3.8795545	鉄眼	-0.09404617
-3.5305624	一切	-0.33584332
-4.1869555	万福	-0.09404617
-4.1869555	山内	-0.09404617
-4.1869555	宝蔵	-0.09404617
-4.1869555	摺	-0.09404617
-4.1869555	唐音	-0.09404617
-4.1869555	於け	-0.09404617
-4.1869555	読経	-0.09404617
-3.8795545	古	-0.2824944
-3.1373835	語	-0.23762383
-3.990047	発音	-0.09404617
-4.1869555	とういん	-0.09404617
-4.1869555	上座	-0.09404617
-3.990047	小乗	-0.09404617
-4.1869555	唯一	-0.09404617
-3.729973	本仏	-0.2205844
-3.729973	かつて	-0.09404613
-3.4571767	唱え	-0.40094674
-3.3944173	日蓮	-0.2217007
-4.1869555	しきり	-0.09404617
-3.4571767	無量	-0.30802345
-4.1869555	長寿	-0.09404617
-4.1869555	世尊	-0.09404617
-3.990047	当た	-0.2205844
-3.5305624	久遠	-0.1741864
-3.990047	身延	-0.09404617
-4.1869555	山梨	-0.09404617
-4.1869555	巨摩	-0.09404617
-4.1869555	寺名	-0.09404617
-4.1869555	したが	-0.09404617
-4.1869555	実成	-0.09404617
-3.8795545	涅槃	-0.14033619
-3.8795545	常住	-0.09404617
-3.990047	以来	-0.2205844
-3.729973	流布	-0.22718367
-3.8795545	誕生	-0.09404617
-4.1869555	苦行	-0.09404617
-4.1869555	降魔	-0.09404617
-4.1869555	行な	-0.09404617
-4.1869555	一番	-0.09404617
-3.5305624	造形	-0.1265994
-3.6189215	表現	-0.16507299
-4.1869555	蟹満	-0.09404617
-4.1869555	銅像	-0.09404617
-3.8795545	木像	-0.1527229
-3.990047	著名	-0.09404617
-4.1869555	瑞像	-0.09404617
-4.1869555	模	-0.09404617
-3.990047	広範	-0.2205844
-4.1869555	祭壇	-0.09404617
-3.3944173	文殊	-0.21043292
-3.729973	普賢	-0.22718367
-3.8795545	塔	-0.09404617
-4.1869555	両尊	-0.09404617
-4.1869555	ノウマク	-0.09404617
-3.990047	サン	-0.09404617
-4.1869555	マンダ	-0.09404617
-4.1869555	ボダナン	-0.09404617
-4.1869555	バク	-0.09404617
-4.1869555	悟空	-0.09404617
-4.1869555	諌め	-0.09404617
-4.1869555	天竺	-0.09404617
-4.1869555	お釈迦	-0.09404617
-4.1869555	フジ	-0.09404617
-4.1869555	堺	-0.09404617
-4.1869555	正章	-0.09404617
-3.5305624	大仏	-0.1741864
-4.1869555	だいぶつ	-0.09404617
-4.1869555	巨大	-0.09404617
-3.8795545	アジア	-0.2824944
-4.1869555	圏	-0.09404617
-4.1869555	天然	-0.09404617
-4.1869555	岩壁	-0.09404617
-3.990047	彫刻	-0.09404617
-3.8795545	古く	-0.2824944
-3.8795545	つく	-0.1741864
-3.990047	現代	-0.09404617
-4.1869555	願主	-0.09404617
-3.990047	○	-0.09404617
-4.1869555	メートル	-0.09404617
-3.990047	基準	-0.09404617
-4.1869555	2007	-0.09404617
-4.1869555	タモリ	-0.09404617
-4.1869555	倶楽部	-0.09404617
-4.1869555	取り上げ	-0.09404617
-3.990047	決定	-0.09404617
-4.1869555	特集	-0.09404617
-4.1869555	みっきょう	-0.09404617
-3.5305624	きょう	-0.40327492
-3.990047	略称	-0.09404617
-3.8795545	徒	-0.09404617
-4.1869555	用語	-0.09404617
-4.1869555	mah	-0.09404617
-4.1869555	āy	-0.09404617
-3.8795545	āna	-0.2824944
-4.1869555	h	-0.09404617
-4.1869555	īnay	-0.09404617
-3.990047	乗	-0.09404617
-4.1869555	vajray	-0.09404617
-3.990047	自称	-0.09404617
-3.8795545	含	-0.1741864
-4.1869555	学者	-0.09404617
-4.1869555	見解	-0.09404617
-3.990047	背景	-0.2205844
-3.5305624	ヒンドゥー	-0.5835244
-3.990047	隆盛	-0.09404617
-4.1869555	圧迫	-0.09404617
-3.5305624	社会	-0.12239434
-4.1869555	情勢	-0.09404617
-3.8795545	要素	-0.1741864
-4.1869555	取り込	-0.09404617
-3.990047	結果	-0.09404617
-4.1869555	密教化	-0.09404617
-3.990047	衰退	-0.09404617
-4.1869555	イスラム	-0.09404617
-4.1869555	偶像	-0.09404617
-4.1869555	呪術	-0.09404617
-3.990047	徹底	-0.09404617
-4.1869555	攻撃	-0.09404617
-4.1869555	段階	-0.09404617
-4.1869555	消滅	-0.09404617
-4.1869555	各種	-0.09404617
-3.8795545	咒	-0.09404617
-3.8795545	陀羅	-0.1741864
-4.1869555	新興	-0.09404617
-4.1869555	対抗	-0.09404617
-4.1869555	体系	-0.09404617
-4.1869555	試み	-0.09404617
-3.990047	仏性	-0.09404617
-4.1869555	原理	-0.09404617
-4.1869555	追求	-0.09404617
-3.990047	総持	-0.09404617
-3.8795545	最勝	-0.09404617
-3.729973	尊崇	-0.1527229
-3.8795545	性交	-0.1741864
-4.1869555	無上	-0.09404617
-3.990047	瑜伽	-0.09404617
-4.1869555	実施	-0.09404617
-3.729973	観想	-0.3240937
-4.1869555	移行	-0.09404617
-3.990047	動き	-0.09404617
-4.1869555	初めて	-0.09404617
-4.1869555	紹介	-0.09404617
-3.990047	伝教	-0.2205844
-4.1869555	東密	-0.09404617
-4.1869555	教王	-0.09404617
-4.1869555	護国寺	-0.09404617
-3.8795545	円仁	-0.1741864
-3.8795545	円珍	-0.1527229
-4.1869555	入唐	-0.09404617
-4.1869555	求法	-0.09404617
-3.990047	密宗	-0.1741864
-3.990047	唐代	-0.09404617
-4.1869555	押	-0.09404617
-4.1869555	途絶	-0.09404617
-4.1869555	西蔵	-0.09404617
-3.4571767	チベット	-0.16547333
-3.990047	自治	-0.09404617
-3.990047	北部	-0.09404617
-4.1869555	転	-0.09404617
-4.1869555	カバラ	-0.09404617
-4.1869555	ブードゥー	-0.09404617
-4.1869555	神秘	-0.09404617
-3.990047	主義	-0.09404617
-4.1869555	密儀	-0.09404617
-4.1869555	みつぎ	-0.09404617
-3.729973	サンスクリット	-0.14962491
-3.990047	アミ	-0.09404617
-4.1869555	ターバ	-0.09404617
-4.1869555	amitaabha	-0.09404617
-3.729973	あるいは	-0.09404619
-4.1869555	ターユス	-0.09404617
-4.1869555	amitaayus	-0.09404617
-3.990047	三昧耶	-0.09404617
-4.1869555	開花	-0.09404617
-4.1869555	種子	-0.09404617
-4.1869555	種字	-0.09404617
-3.990047	キリーク	-0.09404617
-3.990047	hriiH	-0.09404617
-4.1869555	寿	-0.09404617
-3.729973	／	-0.1527229
-3.5305624	光	-0.12239434
-3.8795545	無明	-0.1527229
-3.990047	あまねく	-0.09404617
-4.1869555	仏国	-0.09404617
-3.8795545	土	-0.09404617
-3.990047	配	-0.09404617
-4.1869555	大宇宙	-0.09404617
-4.1869555	ガンジス	-0.09404617
-4.1869555	河	-0.09404617
-4.1869555	砂	-0.09404617
-4.1869555	ほど	-0.09404617
-3.729973	諸仏	-0.19709072
-4.1869555	賞賛	-0.09404617
-3.8795545	依	-0.09404617
-3.990047	，	-0.09404617
-4.1869555	後者	-0.09404617
-4.1869555	ゲルク	-0.09404617
-3.0498338	位	-0.35717803
-4.1869555	パンチェン	-0.09404617
-4.1869555	ラマ	-0.09404617
-4.1869555	死者	-0.09404617
-4.1869555	阿閦	-0.09404617
-4.1869555	宝生	-0.09404617
-3.990047	死後	-0.09404617
-4.1869555	魂	-0.09404617
-3.6189215	起源	-0.16507299
-3.6189215	ゾロアスター	-0.50434315
-4.1869555	イラン	-0.09404617
-3.990047	光明	-0.09404617
-3.990047	最高	-0.09404617
-3.0498338	神	-0.16425045
-3.8795545	アフラ	-0.2824944
-4.1869555	マズダー	-0.09404617
-4.1869555	無限	-0.09404617
-3.990047	時間	-0.09404617
-4.1869555	ズル	-0.09404617
-4.1869555	ワーン	-0.09404617
-3.990047	原型	-0.09404617
-4.1869555	単語	-0.09404617
-4.1869555	言い回し	-0.09404617
-4.1869555	おはこ	-0.09404617
-3.990047	前述	-0.2205844
-4.1869555	とおり	-0.09404617
-3.990047	四十	-0.2205844
-3.990047	もっとも	-0.09404617
-4.1869555	得意	-0.09404617
-4.1869555	くじ	-0.09404617
-3.990047	平行	-0.09404617
-3.990047	線	-0.09404617
-4.1869555	放射	-0.09404617
-4.1869555	光背	-0.09404617
-3.990047	似	-0.09404617
-4.1869555	努力	-0.09404617
-3.729973	本来	-0.22497278
-4.1869555	意図	-0.09404617
-4.1869555	違	-0.09404617
-3.990047	転用	-0.2205844
-3.6189215	小咒	-0.14033619
-3.6189215	オン	-0.3240937
-4.1869555	アミリタ	-0.09404617
-4.1869555	テイ	-0.09404617
-4.1869555	ゼイ	-0.09404617
-4.1869555	カラ	-0.09404617
-4.1869555	ウン	-0.09404617
-4.1869555	垂迹	-0.09404617
-3.8795545	権現	-0.09404617
-4.1869555	八幡	-0.09404617
-4.1869555	西磐井	-0.09404617
-4.1869555	平泉町	-0.09404617
-4.1869555	高徳	-0.09404617
-3.8795545	平等	-0.2824944
-4.1869555	定朝	-0.09404617
-4.1869555	鳳凰	-0.09404617
-3.729973	講堂	-0.13227034
-3.8795545	法界	-0.09404617
-4.1869555	棲霞	-0.09404617
-4.1869555	木津川	-0.09404617
-3.6189215	九	-0.16179194
-3.729973	体	-0.14033619
-4.1869555	生駒	-0.09404617
-4.1869555	厨子	-0.09404617
-3.2074015	弥勒	-0.31873292
-4.1869555	みろく	-0.09404617
-3.8795545	マイト	-0.2824944
-4.1869555	レー	-0.09404617
-4.1869555	ヤ	-0.09404617
-4.1869555	maitreya	-0.09404617
-3.990047	梵名	-0.09404617
-3.8795545	慈	-0.09404617
-4.1869555	阿逸	-0.09404617
-3.990047	Ajita	-0.09404617
-4.1869555	波羅	-0.09404617
-4.1869555	奈	-0.09404617
-4.1869555	パラナシー	-0.09404617
-3.729973	未来	-0.19709072
-4.1869555	賢瓶	-0.09404617
-4.1869555	ユ	-0.09404617
-4.1869555	yu	-0.09404617
-4.1869555	下生経	-0.09404617
-4.1869555	初会	-0.09404617
-4.1869555	96	-0.09404617
-3.729973	億	-0.1527229
-4.1869555	94	-0.09404617
-4.1869555	三会	-0.09404617
-4.1869555	92	-0.09404617
-4.1869555	済度	-0.09404617
-3.8795545	56	-0.1527229
-3.990047	万	-0.09404617
-3.990047	下生	-0.09404617
-4.1869555	先取り	-0.09404617
-3.990047	上生	-0.09404617
-3.990047	こちら	-0.09404617
-3.8795545	流行	-0.1741864
-4.1869555	北魏	-0.09404617
-4.1869555	北宋	-0.09404617
-4.1869555	王朝	-0.09404617
-4.1869555	白蓮	-0.09404617
-3.8795545	富士	-0.09404617
-4.1869555	融合	-0.09404617
-4.1869555	元禄	-0.09404617
-4.1869555	行者	-0.09404617
-4.1869555	食行	-0.09404617
-4.1869555	身禄	-0.09404617
-3.990047	百姓	-0.09404617
-3.6189215	一揆	-0.09404613
-4.1869555	世直し	-0.09404617
-4.1869555	指摘	-0.09404617
-4.1869555	兜率	-0.09404617
-4.1869555	かなり	-0.09404617
-3.990047	早	-0.2205844
-3.990047	すでに	-0.09404617
-3.8795545	阿含	-0.1741864
-3.990047	見え	-0.1741864
-3.990047	概念	-0.09404617
-4.1869555	過去	-0.09404617
-3.6189215	発展	-0.19709072
-4.1869555	300	-0.09404617
-3.990047	唯識	-0.09404617
-4.1869555	学派	-0.09404617
-4.1869555	論師	-0.09404617
-4.1869555	瑜伽師地	-0.09404617
-3.8795545	経論	-0.09404617
-4.1869555	弁	-0.09404617
-3.729973	分別	-0.1527229
-4.1869555	現観	-0.09404617
-4.1869555	法法	-0.09404617
-4.1869555	弁別	-0.09404617
-4.1869555	中級	-0.09404617
-4.1869555	ヤザタ	-0.09404617
-4.1869555	柱	-0.09404617
-3.990047	英雄	-0.2205844
-3.990047	太陽	-0.09404617
-3.8795545	役割	-0.1741864
-3.729973	古代	-0.1527229
-4.1869555	ギリシャ	-0.09404617
-4.1869555	ローマ	-0.09404617
-4.1869555	ミトラース	-0.09404617
-3.8795545	崇め	-0.1741864
-3.990047	ミスラ	-0.09404617
-4.1869555	クシャーナ	-0.09404617
-4.1869555	バクトリア	-0.09404617
-4.1869555	ミイ	-0.09404617
-4.1869555	ロ	-0.09404617
-4.1869555	Miiro	-0.09404617
-4.1869555	語形	-0.09404617
-4.1869555	同じく	-0.09404617
-4.1869555	形容	-0.09404617
-4.1869555	詞	-0.09404617
-4.1869555	名詞	-0.09404617
-4.1869555	友好	-0.09404617
-4.1869555	友情	-0.09404617
-4.1869555	深	-0.09404617
-3.729973	ミルク	-0.19709072
-4.1869555	沖縄	-0.09404617
-4.1869555	祭り	-0.09404617
-4.1869555	笑顔	-0.09404617
-4.1869555	仮面	-0.09404617
-4.1869555	歩き回	-0.09404617
-4.1869555	布袋	-0.09404617
-3.729973	半跏	-0.40743315
-4.1869555	思惟	-0.09404617
-4.1869555	椅	-0.09404617
-4.1869555	坐	-0.09404617
-4.1869555	左足	-0.09404617
-4.1869555	下ろ	-0.09404617
-4.1869555	右足	-0.09404617
-4.1869555	上げ	-0.09404617
-4.1869555	左膝	-0.09404617
-4.1869555	頬	-0.09404617
-4.1869555	づえ	-0.09404617
-4.1869555	瞑想	-0.09404617
-4.1869555	野中	-0.09404617
-4.1869555	金銅像	-0.09404617
-4.1869555	重文	-0.09404617
-3.990047	最古	-0.2205844
-4.1869555	→	-0.09404617
-3.729973	坐像	-0.1527229
-4.1869555	マイ	-0.09404617
-4.1869555	タ	-0.09404617
-4.1869555	レイヤ	-0.09404617
-3.990047	ソワカ	-0.09404617
-3.6189215	題目	-0.16778697
-4.1869555	建前	-0.09404617
-4.1869555	名目	-0.09404617
-3.729973	使用	-0.22718367
-4.1869555	元来	-0.09404617
-4.1869555	記載	-0.09404617
-4.1869555	クマーラ	-0.09404617
-4.1869555	・ジーヴァ	-0.09404617
-3.990047	漢字	-0.09404617
-4.1869555	八巻	-0.09404617
-3.8795545	題名	-0.1527229
-4.1869555	｛	-0.09404617
-4.1869555	みおしえ	-0.09404617
-4.1869555	｝	-0.09404617
-4.1869555	きえ	-0.09404617
-3.990047	連続	-0.2205844
-4.1869555	宣言	-0.09404617
-4.1869555	ナモ	-0.09404617
-4.1869555	ナーモ	-0.09404617
-4.1869555	ナマス	-0.09404617
-4.1869555	組み込	-0.09404617
-3.8795545	最初	-0.1741864
-3.990047	詳細	-0.09404617
-3.990047	繰り返	-0.09404617
-3.8795545	唱題	-0.14033619
-4.1869555	だい	-0.09404617
-4.1869555	正行	-0.09404617
-4.1869555	ぎょ	-0.09404617
-4.1869555	一致	-0.09404617
-4.1869555	なむ	-0.09404617
-3.3944173	みょう	-0.11915158
-4.1869555	ほうれんげ	-0.09404617
-3.990047	門流	-0.09404617
-4.1869555	創価	-0.09404617
-4.1869555	学会	-0.09404617
-4.1869555	なん	-0.09404617
-3.4571767	如	-0.12239434
-4.1869555	法主	-0.09404617
-4.1869555	登座	-0.09404617
-3.6189215	同様	-0.25666207
-4.1869555	確か	-0.09404617
-4.1869555	正史	-0.09404617
-3.729973	実在	-0.1527229
-3.8795545	但し	-0.1781281
-4.1869555	指向	-0.09404617
-3.990047	固有	-0.2205844
-3.8795545	釈尊	-0.1741864
-4.1869555	さすが	-0.09404617
-4.1869555	最低	-0.09404617
-4.1869555	なら	-0.09404617
-4.1869555	羅列	-0.09404617
-3.990047	はず	-0.09404617
-4.1869555	安心	-0.09404617
-4.1869555	仮	-0.09404617
-3.729973	内容	-0.09404617
-4.1869555	架空	-0.09404617
-4.1869555	嘘	-0.09404617
-3.990047	明らか	-0.09404617
-3.990047	正し	-0.09404617
-3.990047	言え	-0.09404617
-4.1869555	実態	-0.09404617
-4.1869555	含み	-0.09404617
-3.990047	例えば	-0.09404617
-4.1869555	本気	-0.09404617
-4.1869555	実行	-0.09404617
-4.1869555	ほっけ	-0.09404617
-3.729973	普及	-0.22718367
-4.1869555	章節	-0.09404617
-3.990047	迹門	-0.09404617
-4.1869555	水中	-0.09404617
-4.1869555	映	-0.09404617
-3.729973	本門	-0.09404617
-4.1869555	浮か	-0.09404617
-4.1869555	譬え	-0.09404617
-4.1869555	細か	-0.09404617
-3.990047	分け	-0.09404617
-4.1869555	段	-0.09404617
-3.990047	前半	-0.09404617
-4.1869555	迹	-0.09404617
-4.1869555	序	-0.09404617
-4.1869555	流通	-0.09404617
-4.1869555	三分	-0.09404617
-3.990047	後半	-0.09404617
-4.1869555	ほんもん	-0.09404617
-3.8795545	おん	-0.09404617
-4.1869555	じつ	-0.09404617
-3.8795545	問題	-0.09404617
-4.1869555	惹起	-0.09404617
-4.1869555	すなわち	-0.09404617
-4.1869555	もはや	-0.09404617
-3.990047	寿命	-0.09404617
-4.1869555	見かけ	-0.09404617
-3.990047	生死	-0.09404617
-4.1869555	そして	-0.09404617
-3.990047	この世	-0.09404617
-4.1869555	娑婆	-0.09404617
-4.1869555	永遠	-0.09404617
-4.1869555	はじめ	-0.09404617
-4.1869555	境涯	-0.09404617
-4.1869555	序品	-0.09404617
-4.1869555	じょほん	-0.09404617
-4.1869555	方便	-0.09404617
-4.1869555	んぼん	-0.09404617
-3.990047	譬喩	-0.2205844
-4.1869555	ひゆほん	-0.09404617
-3.990047	解	-0.09404617
-4.1869555	しんげほん	-0.09404617
-3.990047	薬草	-0.2205844
-3.8795545	喩	-0.1741864
-4.1869555	やくそう	-0.09404617
-4.1869555	ゆほん	-0.09404617
-4.1869555	授記	-0.09404617
-4.1869555	じゅきほん	-0.09404617
-3.8795545	化城	-0.1741864
-4.1869555	け	-0.09404617
-4.1869555	じょうゆ	-0.09404617
-3.2471561	ほん	-0.52600276
-3.6189215	五百	-0.25666207
-4.1869555	受記	-0.09404617
-4.1869555	ごひゃく	-0.09404617
-4.1869555	ゅきほん	-0.09404617
-4.1869555	授	-0.09404617
-4.1869555	無学	-0.09404617
-4.1869555	じゅが	-0.09404617
-4.1869555	がく	-0.09404617
-4.1869555	きほん	-0.09404617
-4.1869555	ほっしほん	-0.09404617
-3.6189215	宝塔	-0.18835945
-4.1869555	ほうとう	-0.09404617
-4.1869555	提婆達多	-0.09404617
-4.1869555	だいば	-0.09404617
-3.990047	だっ	-0.2205844
-4.1869555	勧持	-0.09404617
-4.1869555	かんじほん	-0.09404617
-4.1869555	あんらく	-0.09404617
-4.1869555	従地	-0.09404617
-4.1869555	湧出品	-0.09404617
-3.729973	じゅう	-0.09404613
-4.1869555	ゆじ	-0.09404617
-3.8795545	ゅ	-0.09404617
-3.990047	つほん	-0.2205844
-4.1869555	りょうほん	-0.09404617
-4.1869555	ふんべつ	-0.09404617
-4.1869555	随喜	-0.09404617
-3.990047	くど	-0.2205844
-4.1869555	ほっし	-0.09404617
-4.1869555	常	-0.09404617
-4.1869555	軽	-0.09404617
-4.1869555	ふきょうぼ	-0.09404617
-4.1869555	神力	-0.09404617
-3.990047	りき	-0.09404617
-4.1869555	嘱	-0.09404617
-4.1869555	累	-0.09404617
-4.1869555	ぞくる	-0.09404617
-4.1869555	薬王	-0.09404617
-3.990047	本事	-0.2205844
-4.1869555	やくお	-0.09404617
-4.1869555	うぼ	-0.09404617
-4.1869555	じほん	-0.09404617
-4.1869555	妙音	-0.09404617
-4.1869555	おんぼ	-0.09404617
-4.1869555	かんぜ	-0.09404617
-4.1869555	さつふ	-0.09404617
-4.1869555	にほん	-0.09404617
-3.8795545	妙	-0.09404617
-4.1869555	勧	-0.09404617
-4.1869555	発	-0.09404617
-4.1869555	ふげん	-0.09404617
-4.1869555	さつか	-0.09404617
-4.1869555	たとえ話	-0.09404617
-4.1869555	七譬	-0.09404617
-4.1869555	しちひ	-0.09404617
-4.1869555	火宅	-0.09404617
-4.1869555	さんしゃ	-0.09404617
-4.1869555	かた	-0.09404617
-4.1869555	窮子	-0.09404617
-4.1869555	信解	-0.09404617
-4.1869555	草	-0.09404617
-4.1869555	二木	-0.09404617
-4.1869555	さんそう	-0.09404617
-4.1869555	宝処	-0.09404617
-4.1869555	じょうほう	-0.09404617
-4.1869555	ょ	-0.09404617
-4.1869555	衣裏	-0.09404617
-4.1869555	繋珠	-0.09404617
-4.1869555	えりけいし	-0.09404617
-3.990047	髻	-0.09404617
-4.1869555	明珠	-0.09404617
-4.1869555	けいちゅう	-0.09404617
-3.6189215	しゅ	-0.09404613
-4.1869555	良医	-0.09404617
-3.990047	病	-0.09404617
-4.1869555	ろう	-0.09404617
-4.1869555	びょうし	-0.09404617
-4.1869555	状況	-0.09404617
-4.1869555	示唆	-0.09404617
-4.1869555	ユーラシア	-0.09404617
-4.1869555	東部	-0.09404617
-4.1869555	先ず	-0.09404617
-4.1869555	編修	-0.09404617
-4.1869555	羅什	-0.09404617
-3.990047	省略	-0.09404617
-4.1869555	添品	-0.09404617
-4.1869555	追加	-0.09404617
-4.1869555	ウイグル	-0.09404617
-4.1869555	西夏	-0.09404617
-4.1869555	モンゴル	-0.09404617
-3.8795545	満洲	-0.09404617
-4.1869555	朝鮮	-0.09404617
-4.1869555	諺文	-0.09404617
-4.1869555	浙江	-0.09404617
-3.3944173	省	-0.09404617
-4.1869555	国清	-0.09404617
-4.1869555	智顗	-0.09404617
-4.1869555	正倉	-0.09404617
-4.1869555	断簡	-0.09404617
-4.1869555	なじみ	-0.09404617
-4.1869555	606	-0.09404617
-3.990047	推古	-0.09404617
-4.1869555	記事	-0.09404617
-4.1869555	書紀	-0.09404617
-3.990047	皇太子	-0.09404617
-3.990047	亦	-0.09404617
-4.1869555	岡本	-0.09404617
-3.990047	たま	-0.2205844
-3.8795545	大き	-0.09404617
-3.990047	喜び	-0.09404617
-3.990047	播磨	-0.09404617
-4.1869555	水田	-0.09404617
-3.8795545	因	-0.09404617
-4.1869555	納れ	-0.09404617
-4.1869555	巻第	-0.09404617
-4.1869555	２２	-0.09404617
-4.1869555	１４	-0.09404617
-4.1869555	615	-0.09404617
-3.8795545	注釈	-0.14033619
-3.990047	義疏	-0.09404617
-4.1869555	皇室	-0.09404617
-4.1869555	名づけ	-0.09404617
-4.1869555	至上	-0.09404617
-3.729973	新	-0.1527229
-4.1869555	果た	-0.09404617
-4.1869555	成仏説	-0.09404617
-3.8795545	読	-0.1527229
-3.729973	全国	-0.09404617
-4.1869555	大衆	-0.09404617
-3.990047	広ま	-0.2205844
-3.8795545	始め	-0.1741864
-3.990047	近代	-0.09404617
-4.1869555	おもに	-0.09404617
-4.1869555	作家	-0.09404617
-4.1869555	教理	-0.09404617
-4.1869555	およそ	-0.09404617
-3.990047	憶念	-0.09404617
-4.1869555	修定	-0.09404617
-4.1869555	意識	-0.09404617
-4.1869555	停止	-0.09404617
-3.990047	讃嘆	-0.09404617
-4.1869555	供養	-0.09404617
-4.1869555	大切	-0.09404617
-4.1869555	比叡	-0.09404617
-3.8795545	常行	-0.1741864
-4.1869555	般舟	-0.09404617
-4.1869555	観相	-0.09404617
-4.1869555	思い浮かべ	-0.09404617
-4.1869555	慧遠	-0.09404617
-4.1869555	東晋	-0.09404617
-4.1869555	慈愍	-0.09404617
-4.1869555	禅観	-0.09404617
-3.8795545	法相	-0.22718367
-4.1869555	主流	-0.09404617
-3.990047	貴族	-0.09404617
-4.1869555	建築	-0.09404617
-4.1869555	平泉	-0.09404617
-4.1869555	貞慶	-0.09404617
-4.1869555	励行	-0.09404617
-4.1869555	称え	-0.09404617
-3.8795545	主張	-0.09404617
-4.1869555	勧め	-0.09404617
-4.1869555	空間	-0.09404617
-4.1869555	誰	-0.09404617
-4.1869555	幅広	-0.09404617
-4.1869555	層	-0.09404617
-4.1869555	貢献	-0.09404617
-3.6189215	踊	-0.25666207
-4.1869555	おどり	-0.09404617
-4.1869555	ねん	-0.09404617
-4.1869555	太鼓	-0.09404617
-4.1869555	鉦	-0.09404617
-4.1869555	かね	-0.09404617
-4.1869555	打ち鳴ら	-0.09404617
-3.990047	空也	-0.2205844
-3.8795545	時宗	-0.09404617
-3.8795545	一遍	-0.09404617
-4.1869555	信濃	-0.09404617
-4.1869555	伴野	-0.09404617
-4.1869555	佐久	-0.09404617
-4.1869555	訪れ	-0.09404617
-3.6189215	同じ	-0.09404617
-4.1869555	一向	-0.09404617
-4.1869555	俊聖	-0.09404617
-4.1869555	盆踊り	-0.09404617
-4.1869555	出雲	-0.09404617
-4.1869555	阿国	-0.09404617
-3.990047	創始	-0.2205844
-4.1869555	歌舞伎踊り	-0.09404617
-4.1869555	だいしゅう	-0.09404617
-3.990047	発祥	-0.09404617
-4.1869555	隋	-0.09404617
-4.1869555	智ギ	-0.09404617
-4.1869555	ちぎ	-0.09404617
-4.1869555	538	-0.09404617
-4.1869555	597	-0.09404617
-4.1869555	智者	-0.09404617
-4.1869555	実質	-0.09404617
-4.1869555	礎	-0.09404617
-4.1869555	吸収	-0.09404617
-3.8795545	確立	-0.1527229
-3.5305624	章	-0.1741864
-4.1869555	安	-0.09404617
-4.1869555	561	-0.09404617
-4.1869555	632	-0.09404617
-4.1869555	宗勢	-0.09404617
-4.1869555	振る	-0.09404617
-4.1869555	玄朗	-0.09404617
-4.1869555	擬	-0.09404617
-3.990047	円	-0.09404617
-4.1869555	呼び名	-0.09404617
-3.990047	混乱	-0.09404617
-4.1869555	招	-0.09404617
-4.1869555	初め	-0.09404617
-4.1869555	兼学	-0.09404617
-4.1869555	鑑真	-0.09404617
-4.1869555	和上	-0.09404617
-3.990047	来日	-0.2205844
-3.990047	典籍	-0.09404617
-4.1869555	戻	-0.09404617
-4.1869555	後年	-0.09404617
-4.1869555	輩出	-0.09404617
-3.990047	一乗	-0.09404617
-4.1869555	堅持	-0.09404617
-4.1869555	徳一	-0.09404617
-3.729973	戒壇	-0.09404617
-4.1869555	勅許	-0.09404617
-4.1869555	下り	-0.09404617
-4.1869555	名実	-0.09404617
-4.1869555	事情	-0.09404617
-3.990047	考慮	-0.09404617
-4.1869555	ポイント	-0.09404617
-3.990047	いく	-0.2205844
-4.1869555	最新	-0.09404617
-4.1869555	完全	-0.09404617
-4.1869555	編入	-0.09404617
-4.1869555	いったん	-0.09404617
-4.1869555	ストップ	-0.09404617
-4.1869555	今日	-0.09404617
-4.1869555	起因	-0.09404617
-4.1869555	そもそも	-0.09404617
-4.1869555	源流	-0.09404617
-4.1869555	見出	-0.09404617
-4.1869555	止観	-0.09404617
-4.1869555	夕	-0.09404617
-4.1869555	集約	-0.09404617
-4.1869555	萌芽	-0.09404617
-4.1869555	宿	-0.09404617
-4.1869555	bodhisattva	-0.09404617
-4.1869555	sanskrit	-0.09404617
-4.1869555	ろ	-0.09404617
-4.1869555	概要	-0.09404617
-4.1869555	ボー	-0.09404617
-4.1869555	ディ	-0.09404617
-4.1869555	サット	-0.09404617
-4.1869555	ヴァ	-0.09404617
-4.1869555	bodhi-	-0.09404617
-3.990047	sattva	-0.09404617
-3.8795545	音写	-0.1527229
-4.1869555	bodhi	-0.09404617
-4.1869555	有情	-0.09404617
-3.990047	大般若	-0.2205844
-3.990047	波羅蜜	-0.09404617
-4.1869555	菩薩摩訶	-0.09404617
-4.1869555	定着	-0.09404617
-4.1869555	階位	-0.09404617
-4.1869555	細分	-0.09404617
-4.1869555	構造	-0.09404617
-4.1869555	所説	-0.09404617
-4.1869555	不同	-0.09404617
-3.8795545	妙覚	-0.09404617
-4.1869555	みょうかく	-0.09404617
-4.1869555	52	-0.09404617
-3.6189215	等覚	-0.14033619
-4.1869555	一品	-0.09404617
-4.1869555	いっぽん	-0.09404617
-4.1869555	断	-0.09404617
-4.1869555	尽く	-0.09404617
-4.1869555	とうか	-0.09404617
-3.729973	十地	-0.09404617
-4.1869555	じっち	-0.09404617
-4.1869555	ぢ	-0.09404617
-3.990047	41	-0.09404617
-2.704042	～	-0.115442425
-3.990047	廻向	-0.09404617
-4.1869555	じゅうえこ	-0.09404617
-3.990047	位階	-0.09404617
-3.990047	40	-0.09404617
-4.1869555	終	-0.09404617
-4.1869555	仏子	-0.09404617
-4.1869555	進	-0.09404617
-4.1869555	利他	-0.09404617
-4.1869555	完う	-0.09404617
-4.1869555	努め	-0.09404617
-4.1869555	じゅうじゅう	-0.09404617
-4.1869555	真諦	-0.09404617
-4.1869555	しんたい	-0.09404617
-4.1869555	理	-0.09404617
-4.1869555	安住	-0.09404617
-3.8795545	住	-0.14033619
-4.1869555	名づ	-0.09404617
-4.1869555	じゅうしん	-0.09404617
-4.1869555	願心	-0.09404617
-4.1869555	戒心	-0.09404617
-4.1869555	退	-0.09404617
-4.1869555	定心	-0.09404617
-4.1869555	慧心	-0.09404617
-3.990047	精進	-0.09404617
-4.1869555	念心	-0.09404617
-4.1869555	信心	-0.09404617
-4.1869555	疑心	-0.09404617
-3.8795545	果	-0.09404617
-4.1869555	凡	-0.09404617
-4.1869555	相対	-0.09404617
-4.1869555	前提	-0.09404617
-4.1869555	要因	-0.09404617
-4.1869555	欠け	-0.09404617
-3.3944173	仏陀	-0.22256772
-4.1869555	独力	-0.09404617
-4.1869555	悟	-0.09404617
-4.1869555	他人	-0.09404617
-4.1869555	縁覚	-0.09404617
-3.990047	二乗	-0.2205844
-4.1869555	前生	-0.09404617
-4.1869555	本生	-0.09404617
-4.1869555	ジャータカ	-0.09404617
-3.990047	創造	-0.2205844
-4.1869555	事例	-0.09404617
-4.1869555	制約	-0.09404617
-4.1869555	いわば	-0.09404617
-4.1869555	手足	-0.09404617
-4.1869555	はたらき	-0.09404617
-4.1869555	たけ	-0.09404617
-4.1869555	はたら	-0.09404617
-4.1869555	かかわり	-0.09404617
-4.1869555	有様	-0.09404617
-4.1869555	わけ	-0.09404617
-4.1869555	学僧	-0.09404617
-3.990047	尊称	-0.09404617
-4.1869555	注意	-0.09404617
-3.8795545	必要	-0.13227034
-4.1869555	習合	-0.09404617
-4.1869555	仏道	-0.09404617
-3.990047	朝廷	-0.2205844
-3.990047	行基	-0.09404617
-4.1869555	弘長	-0.09404617
-3.990047	1262	-0.09404617
-4.1869555	三条	-0.09404617
-4.1869555	富	-0.09404617
-4.1869555	小路	-0.09404617
-4.1869555	発病	-0.09404617
-4.1869555	90	-0.09404617
-4.1869555	翌	-0.09404617
-4.1869555	午後	-0.09404617
-4.1869555	葬送	-0.09404617
-3.990047	顕智	-0.09404617
-4.1869555	遠江	-0.09404617
-4.1869555	池田	-0.09404617
-4.1869555	専信	-0.09404617
-4.1869555	上洛	-0.09404617
-4.1869555	参列	-0.09404617
-3.990047	鳥辺野	-0.09404617
-4.1869555	とりべ	-0.09404617
-4.1869555	火葬	-0.09404617
-4.1869555	拾	-0.09404617
-4.1869555	骨	-0.09404617
-3.990047	北	-0.09404617
-4.1869555	墳墓	-0.09404617
-4.1869555	納骨	-0.09404617
-4.1869555	影像	-0.09404617
-4.1869555	妥当	-0.09404617
-3.8795545	職	-0.09404617
-4.1869555	るすしき	-0.09404617
-4.1869555	子孫	-0.09404617
-3.990047	後継	-0.2205844
-4.1869555	血脈	-0.09404617
-4.1869555	相続	-0.09404617
-4.1869555	基礎	-0.09404617
-3.729973	覚恵	-0.09404613
-4.1869555	両人	-0.09404617
-3.990047	正和	-0.09404617
-3.990047	三代	-0.09404617
-3.990047	廟堂	-0.1527229
-4.1869555	再建	-0.09404617
-4.1869555	せんじ	-0.09404617
-4.1869555	ゅじ	-0.09404617
-3.990047	直接	-0.09404617
-4.1869555	衆徒	-0.09404617
-4.1869555	抗議	-0.09404617
-3.5305624	継承	-0.15553294
-4.1869555	表明	-0.09404617
-3.8795545	地方	-0.14033619
-4.1869555	乱立	-0.09404617
-4.1869555	真仏	-0.09404617
-3.990047	系統	-0.09404617
-4.1869555	ひく	-0.09404617
-4.1869555	荒木	-0.09404617
-3.990047	和田	-0.09404617
-4.1869555	鹿島	-0.09404617
-4.1869555	伊達	-0.09404617
-4.1869555	曽根	-0.09404617
-4.1869555	了源	-0.09404617
-4.1869555	仏光	-0.09404617
-4.1869555	名帳	-0.09404617
-4.1869555	系図	-0.09404617
-4.1869555	とげ	-0.09404617
-3.990047	善如	-0.09404617
-3.990047	綽如	-0.09404617
-3.8795545	巧如	-0.09404617
-3.8795545	存如	-0.09404617
-3.6189215	近江	-0.09404613
-3.6189215	北陸	-0.09404613
-3.8795545	徐々	-0.2824944
-3.990047	教線	-0.09404617
-4.1869555	拡張	-0.09404617
-4.1869555	明徳	-0.09404617
-4.1869555	1390	-0.09404617
-4.1869555	綽	-0.09404617
-4.1869555	越中国	-0.09404617
-3.729973	富山	-0.1527229
-4.1869555	井波	-0.09404617
-4.1869555	瑞泉	-0.09404617
-4.1869555	南砺	-0.09404617
-4.1869555	巧	-0.09404617
-3.990047	建て	-0.09404617
-4.1869555	無理	-0.09404617
-4.1869555	祟	-0.09404617
-4.1869555	逼迫	-0.09404617
-3.990047	長男	-0.09404617
-3.729973	青蓮	-0.40743315
-4.1869555	兼寿	-0.09404617
-4.1869555	法名	-0.09404617
-4.1869555	宝徳	-0.09404617
-4.1869555	1449	-0.09404617
-4.1869555	35	-0.09404617
-3.990047	存	-0.2205844
-3.990047	おもむ	-0.09404617
-4.1869555	遠く	-0.09404617
-4.1869555	奥州	-0.09404617
-4.1869555	遺跡	-0.09404617
-4.1869555	巡拝	-0.09404617
-4.1869555	長禄	-0.09404617
-4.1869555	1457	-0.09404617
-3.990047	ころ	-0.09404617
-4.1869555	騒然	-0.09404617
-4.1869555	翌々	-0.09404617
-4.1869555	飢饉	-0.09404617
-4.1869555	加茂	-0.09404617
-4.1869555	川	-0.09404617
-4.1869555	餓死	-0.09404617
-4.1869555	埋ま	-0.09404617
-3.6189215	諸国	-0.14033619
-4.1869555	戦乱	-0.09404617
-4.1869555	絶え	-0.09404617
-4.1869555	深刻	-0.09404617
-4.1869555	様相	-0.09404617
-4.1869555	呈	-0.09404617
-4.1869555	進展	-0.09404617
-4.1869555	農村	-0.09404617
-4.1869555	生産	-0.09404617
-4.1869555	増大	-0.09404617
-4.1869555	荘園	-0.09404617
-4.1869555	領主	-0.09404617
-4.1869555	没落	-0.09404617
-4.1869555	農民	-0.09404617
-3.990047	地位	-0.09404617
-4.1869555	向上	-0.09404617
-4.1869555	惣村	-0.09404617
-4.1869555	機敏	-0.09404617
-4.1869555	対応	-0.09404617
-3.990047	積極	-0.2205844
-4.1869555	伝道	-0.09404617
-3.990047	開始	-0.09404617
-4.1869555	熱烈	-0.09404617
-4.1869555	共感	-0.09404617
-3.729973	近畿	-0.09404613
-4.1869555	ひろが	-0.09404617
-4.1869555	村々	-0.09404617
-4.1869555	無碍	-0.09404617
-4.1869555	刺激	-0.09404617
-4.1869555	僧兵	-0.09404617
-4.1869555	破却	-0.09404617
-4.1869555	1471	-0.09404617
-4.1869555	難	-0.09404617
-4.1869555	さけ	-0.09404617
-3.990047	吉崎	-0.09404617
-3.8795545	御坊	-0.09404617
-4.1869555	1475	-0.09404617
-4.1869555	鎮静	-0.09404617
-4.1869555	退去	-0.09404617
-3.990047	河内	-0.09404617
-3.990047	出口	-0.09404617
-4.1869555	聖道	-0.09404617
-4.1869555	僧俗	-0.09404617
-4.1869555	1478	-0.09404617
-4.1869555	造営	-0.09404617
-4.1869555	着手	-0.09404617
-4.1869555	1483	-0.09404617
-4.1869555	寝殿	-0.09404617
-4.1869555	諸堂舎	-0.09404617
-4.1869555	長享	-0.09404617
-4.1869555	1488	-0.09404617
-3.990047	加賀	-0.09404617
-3.990047	共和	-0.2205844
-4.1869555	もち	-0.09404617
-4.1869555	たる	-0.09404617
-4.1869555	樹立	-0.09404617
-4.1869555	周辺	-0.09404617
-4.1869555	民家	-0.09404617
-4.1869555	寺内	-0.09404617
-4.1869555	参詣	-0.09404617
-4.1869555	職種	-0.09404617
-4.1869555	しの	-0.09404617
-4.1869555	盛況	-0.09404617
-4.1869555	いた	-0.09404617
-4.1869555	のび	-0.09404617
-3.729973	契丹	-0.1527229
-4.1869555	有数	-0.09404617
-4.1869555	成長	-0.09404617
-3.990047	延徳	-0.2205844
-4.1869555	1489	-0.09404617
-4.1869555	75	-0.09404617
-3.6189215	実如	-0.09404617
-3.729973	譲	-0.09404617
-4.1869555	82	-0.09404617
-3.729973	大坂	-0.1527229
-3.990047	坊舎	-0.09404617
-4.1869555	1497	-0.09404617
-4.1869555	83	-0.09404617
-4.1869555	隠居	-0.09404617
-4.1869555	すなはち	-0.09404617
-4.1869555	往昔	-0.09404617
-4.1869555	宿縁	-0.09404617
-4.1869555	因縁	-0.09404617
-4.1869555	おぼえ	-0.09404617
-3.990047	はん	-0.09404617
-4.1869555	1499	-0.09404617
-4.1869555	病状	-0.09404617
-4.1869555	悪化	-0.09404617
-4.1869555	示寂	-0.09404617
-3.8795545	戦国	-0.09404617
-3.8795545	禁圧	-0.09404617
-4.1869555	証	-0.09404617
-3.5305624	顕如	-0.17681022
-4.1869555	解放	-0.09404617
-4.1869555	ささえ	-0.09404617
-4.1869555	変革	-0.09404617
-4.1869555	原動	-0.09404617
-4.1869555	1500	-0.09404617
-3.8795545	照	-0.09404617
-4.1869555	永正	-0.09404617
-3.990047	朝倉	-0.2205844
-4.1869555	内紛	-0.09404617
-4.1869555	介入	-0.09404617
-4.1869555	1504	-0.09404617
-4.1869555	相模	-0.09404617
-3.8795545	北条	-0.09404617
-4.1869555	領内	-0.09404617
-4.1869555	一斉	-0.09404617
-4.1869555	蜂起	-0.09404617
-4.1869555	1507	-0.09404617
-4.1869555	細川	-0.09404617
-3.990047	政元	-0.09404617
-4.1869555	家督	-0.09404617
-4.1869555	殺	-0.09404617
-4.1869555	紛争	-0.09404617
-4.1869555	まきこ	-0.09404617
-4.1869555	恐れ	-0.09404617
-4.1869555	真影	-0.09404617
-4.1869555	堅田	-0.09404617
-4.1869555	避難	-0.09404617
-4.1869555	滞在	-0.09404617
-3.990047	1516	-0.09404617
-4.1869555	後柏原	-0.09404617
-4.1869555	1521	-0.09404617
-3.990047	長尾	-0.09404617
-4.1869555	大永	-0.09404617
-4.1869555	次男	-0.09404617
-3.990047	1525	-0.09404617
-4.1869555	68	-0.09404617
-4.1869555	天文	-0.09404617
-4.1869555	元号	-0.09404617
-4.1869555	1532	-0.09404617
-4.1869555	晴元	-0.09404617
-4.1869555	助け	-0.09404617
-4.1869555	動員	-0.09404617
-4.1869555	畠山	-0.09404617
-4.1869555	破	-0.09404617
-4.1869555	定頼	-0.09404617
-4.1869555	連合	-0.09404617
-4.1869555	軍	-0.09404617
-4.1869555	焼却	-0.09404617
-4.1869555	1541	-0.09404617
-4.1869555	和談	-0.09404617
-4.1869555	1553	-0.09404617
-4.1869555	景虎	-0.09404617
-4.1869555	上杉	-0.09404617
-4.1869555	謙信	-0.09404617
-4.1869555	通路	-0.09404617
-4.1869555	確保	-0.09404617
-4.1869555	和解	-0.09404617
-3.990047	1554	-0.09404617
-3.990047	証如	-0.09404617
-4.1869555	39	-0.09404617
-4.1869555	弘治	-0.09404617
-4.1869555	1556	-0.09404617
-4.1869555	講和	-0.09404617
-4.1869555	永禄	-0.09404617
-4.1869555	1559	-0.09404617
-4.1869555	列	-0.09404617
-4.1869555	下間	-0.09404617
-4.1869555	坊官	-0.09404617
-3.990047	三河	-0.09404617
-4.1869555	本宗	-0.09404617
-4.1869555	顕証	-0.09404617
-4.1869555	八尾	-0.09404617
-4.1869555	院家	-0.09404617
-4.1869555	1563	-0.09404617
-4.1869555	争	-0.09404617
-4.1869555	和睦	-0.09404617
-4.1869555	領国	-0.09404617
-4.1869555	とけ	-0.09404617
-3.990047	1583	-0.2205844
-4.1869555	薩摩	-0.09404617
-4.1869555	島津	-0.09404617
-4.1869555	初年	-0.09404617
-4.1869555	禁教	-0.09404617
-3.729973	継続	-0.19215524
-4.1869555	1568	-0.09404617
-4.1869555	織田	-0.09404617
-3.990047	信長	-0.09404617
-4.1869555	1569	-0.09404617
-3.8795545	入寺	-0.1741864
-3.990047	興正	-0.2205844
-3.990047	脇	-0.2205844
-4.1869555	任	-0.09404617
-3.990047	ぜ	-0.2205844
-4.1869555	合戦	-0.09404617
-4.1869555	1581	-0.09404617
-4.1869555	和議	-0.09404617
-3.990047	紀伊	-0.09404617
-4.1869555	鷺森	-0.09404617
-3.990047	基	-0.09404617
-4.1869555	鷺	-0.09404617
-4.1869555	森	-0.09404617
-4.1869555	堂舎	-0.09404617
-4.1869555	炎上	-0.09404617
-4.1869555	跡地	-0.09404617
-4.1869555	一帯	-0.09404617
-3.8795545	豊臣	-0.2824944
-3.990047	秀吉	-0.1527229
-4.1869555	貝塚	-0.09404617
-4.1869555	1585	-0.09404617
-3.729973	寺地	-0.09404617
-3.8795545	寄進	-0.1527229
-3.8795545	天満	-0.09404617
-4.1869555	てんま	-0.09404617
-4.1869555	まず	-0.09404617
-4.1869555	四面	-0.09404617
-4.1869555	落成	-0.09404617
-3.990047	1591	-0.2205844
-3.990047	再び	-0.09404617
-3.990047	1592	-0.09404617
-4.1869555	戦争	-0.09404617
-4.1869555	終結	-0.09404617
-4.1869555	めぐ	-0.09404617
-3.729973	教如	-0.09404617
-4.1869555	対立	-0.09404617
-4.1869555	隠退	-0.09404617
-4.1869555	准如	-0.09404617
-4.1869555	1602	-0.09404617
-4.1869555	集合	-0.09404617
-4.1869555	離散	-0.09404617
-3.990047	東西	-0.09404617
-3.729973	ほぼ	-0.09404617
-4.1869555	半分	-0.09404617
-4.1869555	分割	-0.09404617
-4.1869555	400	-0.09404617
-3.990047	法灯	-0.1741864
-4.1869555	尊格	-0.09404617
-3.2909198	明王	-0.18095475
-2.9344618	不動	-0.45493627
-4.1869555	配置	-0.09404617
-4.1869555	若干	-0.09404617
-4.1869555	遺例	-0.09404617
-4.1869555	前期	-0.09404617
-4.1869555	839	-0.09404617
-4.1869555	推定	-0.09404617
-4.1869555	関	-0.09404617
-4.1869555	祭事	-0.09404617
-4.1869555	毎年	-0.09404617
-4.1869555	厳修	-0.09404617
-4.1869555	五大力	-0.09404617
-4.1869555	仁王	-0.09404617
-4.1869555	ごだい	-0.09404617
-4.1869555	そん	-0.09404617
-4.1869555	にん	-0.09404617
-4.1869555	あま	-0.09404617
-3.990047	未婚	-0.09404617
-4.1869555	経験	-0.09404617
-4.1869555	沙弥	-0.09404617
-4.1869555	しゃみ	-0.09404617
-3.8795545	期間	-0.09404617
-4.1869555	キリスト	-0.09404617
-4.1869555	修道	-0.09404617
-4.1869555	髪	-0.09404617
-4.1869555	肩	-0.09404617
-4.1869555	あたり	-0.09404617
-4.1869555	切	-0.09404617
-4.1869555	尼削	-0.09404617
-4.1869555	あまそぎ	-0.09404617
-4.1869555	髪形	-0.09404617
-4.1869555	童女	-0.09404617
-4.1869555	近世	-0.09404617
-3.990047	少女	-0.09404617
-4.1869555	いやしめ	-0.09404617
-4.1869555	善良	-0.09404617
-4.1869555	ambaa	-0.09404617
-4.1869555	俗語	-0.09404617
-4.1869555	bhikSuNii	-0.09404617
-3.8795545	男性	-0.09404617
-4.1869555	養母	-0.09404617
-4.1869555	摩訶波闍波提	-0.09404617
-4.1869555	まか	-0.09404617
-3.8795545	じゃ	-0.09404617
-4.1869555	mahaaprajaapatii	-0.09404617
-3.8795545	族	-0.1741864
-4.1869555	剃髪	-0.09404617
-4.1869555	染衣	-0.09404617
-3.990047	尼寺	-0.09404617
-4.1869555	さす	-0.09404617
-3.990047	入道	-0.09404617
-4.1869555	女房	-0.09404617
-4.1869555	御前	-0.09404617
-4.1869555	あまごぜ	-0.09404617
-4.1869555	御台	-0.09404617
-4.1869555	58	-0.09404617
-4.1869555	蘇我	-0.09404617
-4.1869555	馬子	-0.09404617
-4.1869555	司馬	-0.09404617
-4.1869555	達	-0.09404617
-3.990047	彼女	-0.2205844
-4.1869555	百済	-0.09404617
-4.1869555	戒法	-0.09404617
-4.1869555	590	-0.09404617
-4.1869555	桜井	-0.09404617
-3.990047	伝来	-0.09404617
-4.1869555	まつり	-0.09404617
-4.1869555	巫女	-0.09404617
-4.1869555	741	-0.09404617
-3.990047	天平	-0.09404617
-4.1869555	聖武	-0.09404617
-4.1869555	発願	-0.09404617
-3.8795545	国分寺	-0.09404617
-4.1869555	同時	-0.09404617
-4.1869555	鎮護	-0.09404617
-3.990047	国家	-0.09404617
-4.1869555	強ま	-0.09404617
-4.1869555	つれ	-0.09404617
-3.990047	持戒	-0.09404617
-4.1869555	接	-0.09404617
-4.1869555	厭	-0.09404617
-4.1869555	風潮	-0.09404617
-3.8795545	風習	-0.09404617
-3.990047	夫	-0.09404617
-4.1869555	死別	-0.09404617
-3.990047	たり	-0.1741864
-4.1869555	離婚	-0.09404617
-4.1869555	老婆	-0.09404617
-4.1869555	姿かたち	-0.09404617
-4.1869555	たとえば	-0.09404617
-4.1869555	頼朝	-0.09404617
-3.8795545	妻	-0.1527229
-4.1869555	政子	-0.09404617
-4.1869555	権勢	-0.09404617
-4.1869555	振	-0.09404617
-4.1869555	叡尊	-0.09404617
-4.1869555	国分	-0.09404617
-3.990047	同寺	-0.09404617
-3.729973	設置	-0.22718367
-4.1869555	1249	-0.09404617
-4.1869555	次第	-0.09404617
-4.1869555	許容	-0.09404617
-4.1869555	五山	-0.09404617
-4.1869555	遊行	-0.09404617
-4.1869555	八百	-0.09404617
-4.1869555	宴席	-0.09404617
-4.1869555	はべ	-0.09404617
-4.1869555	売春	-0.09404617
-4.1869555	転落	-0.09404617
-3.729973	阿羅漢	-0.14033619
-4.1869555	あら	-0.09404617
-3.990047	arhat	-0.09404617
-4.1869555	施し	-0.09404617
-4.1869555	相応し	-0.09404617
-4.1869555	聖者	-0.09404617
-3.729973	"	-0.1527229
-4.1869555	主格	-0.09404617
-4.1869555	arhan	-0.09404617
-3.3944173	羅漢	-0.2518534
-4.1869555	らかん	-0.09404617
-3.6189215	漢訳	-0.09404619
-4.1869555	応供	-0.09404617
-4.1869555	おうぐ	-0.09404617
-4.1869555	価値	-0.09404617
-4.1869555	立派	-0.09404617
-4.1869555	語根	-0.09404617
-4.1869555	arh	-0.09404617
-4.1869555	元々	-0.09404617
-4.1869555	学道	-0.09404617
-4.1869555	要	-0.09404617
-4.1869555	無学位	-0.09404617
-4.1869555	四向	-0.09404617
-4.1869555	独覚	-0.09404617
-4.1869555	どっかく	-0.09404617
-4.1869555	なれ	-0.09404617
-4.1869555	地獄	-0.09404617
-4.1869555	堕ち	-0.09404617
-4.1869555	まま	-0.09404617
-4.1869555	輪廻	-0.09404617
-4.1869555	さえ	-0.09404617
-4.1869555	護持	-0.09404617
-3.990047	結集	-0.09404617
-4.1869555	けつ	-0.09404617
-4.1869555	集ま	-0.09404617
-3.990047	賓	-0.09404617
-3.729973	跋	-0.09404617
-4.1869555	囉	-0.09404617
-4.1869555	惰	-0.09404617
-3.990047	闍	-0.2205844
-4.1869555	びん	-0.09404617
-4.1869555	ー	-0.09404617
-4.1869555	Pindolabharadr	-0.09404617
-3.990047	āja	-0.2205844
-4.1869555	賓頭	-0.09404617
-3.990047	盧	-0.09404617
-3.990047	尊者	-0.09404617
-3.8795545	即ち	-0.09404617
-4.1869555	おびん	-0.09404617
